{"learner":{"attributes":{"scikit_learn":"{\"_estimator_type\": \"classifier\"}"},"feature_names":["tag_enc","snippet_len","word_count","tag_count","is_button_or_link","is_img_or_svg","has_alt_attr","has_aria_label","has_role_attr","is_aria_related","contrast_ratio","font_size","num_links","num_images","num_buttons","num_inputs","num_lists","num_headings","has_form","num_divs","num_spans","avg_text_len_per_tag","has_inline_style","has_script_or_style"],"feature_types":["int","int","int","int","int","int","int","int","int","int","float","float","int","int","int","int","int","int","int","int","int","float","int","int"],"gradient_booster":{"model":{"cats":{"enc":[],"feature_segments":[],"sorted_idx":[]},"gbtree_model_param":{"num_parallel_tree":"1","num_trees":"600"},"iteration_indptr":[0,4,8,12,16,20,24,28,32,36,40,44,48,52,56,60,64,68,72,76,80,84,88,92,96,100,104,108,112,116,120,124,128,132,136,140,144,148,152,156,160,164,168,172,176,180,184,188,192,196,200,204,208,212,216,220,224,228,232,236,240,244,248,252,256,260,264,268,272,276,280,284,288,292,296,300,304,308,312,316,320,324,328,332,336,340,344,348,352,356,360,364,368,372,376,380,384,388,392,396,400,404,408,412,416,420,424,428,432,436,440,444,448,452,456,460,464,468,472,476,480,484,488,492,496,500,504,508,512,516,520,524,528,532,536,540,544,548,552,556,560,564,568,572,576,580,584,588,592,596,600],"tree_info":[0,1,2,3,0,1,2,3,0,1,2,3,0,1,2,3,0,1,2,3,0,1,2,3,0,1,2,3,0,1,2,3,0,1,2,3,0,1,2,3,0,1,2,3,0,1,2,3,0,1,2,3,0,1,2,3,0,1,2,3,0,1,2,3,0,1,2,3,0,1,2,3,0,1,2,3,0,1,2,3,0,1,2,3,0,1,2,3,0,1,2,3,0,1,2,3,0,1,2,3,0,1,2,3,0,1,2,3,0,1,2,3,0,1,2,3,0,1,2,3,0,1,2,3,0,1,2,3,0,1,2,3,0,1,2,3,0,1,2,3,0,1,2,3,0,1,2,3,0,1,2,3,0,1,2,3,0,1,2,3,0,1,2,3,0,1,2,3,0,1,2,3,0,1,2,3,0,1,2,3,0,1,2,3,0,1,2,3,0,1,2,3,0,1,2,3,0,1,2,3,0,1,2,3,0,1,2,3,0,1,2,3,0,1,2,3,0,1,2,3,0,1,2,3,0,1,2,3,0,1,2,3,0,1,2,3,0,1,2,3,0,1,2,3,0,1,2,3,0,1,2,3,0,1,2,3,0,1,2,3,0,1,2,3,0,1,2,3,0,1,2,3,0,1,2,3,0,1,2,3,0,1,2,3,0,1,2,3,0,1,2,3,0,1,2,3,0,1,2,3,0,1,2,3,0,1,2,3,0,1,2,3,0,1,2,3,0,1,2,3,0,1,2,3,0,1,2,3,0,1,2,3,0,1,2,3,0,1,2,3,0,1,2,3,0,1,2,3,0,1,2,3,0,1,2,3,0,1,2,3,0,1,2,3,0,1,2,3,0,1,2,3,0,1,2,3,0,1,2,3,0,1,2,3,0,1,2,3,0,1,2,3,0,1,2,3,0,1,2,3,0,1,2,3,0,1,2,3,0,1,2,3,0,1,2,3,0,1,2,3,0,1,2,3,0,1,2,3,0,1,2,3,0,1,2,3,0,1,2,3,0,1,2,3,0,1,2,3,0,1,2,3,0,1,2,3,0,1,2,3,0,1,2,3,0,1,2,3,0,1,2,3,0,1,2,3,0,1,2,3,0,1,2,3,0,1,2,3,0,1,2,3,0,1,2,3,0,1,2,3,0,1,2,3,0,1,2,3,0,1,2,3,0,1,2,3,0,1,2,3,0,1,2,3,0,1,2,3,0,1,2,3,0,1,2,3,0,1,2,3,0,1,2,3,0,1,2,3,0,1,2,3,0,1,2,3,0,1,2,3,0,1,2,3,0,1,2,3,0,1,2,3,0,1,2,3,0,1,2,3,0,1,2,3,0,1,2,3,0,1,2,3,0,1,2,3,0,1,2,3],"trees":[{"base_weights":[-0E0,-3.28623E-1,9.0178317E-1,-5.14246E-1,-5.7258677E-2,1.4658804E-1,1.2795242E0,-5.466785E-1,1.0588236E0,-1.5367728E-1,1.0739549E0,9.6253604E-1,-1.8867925E-1,1.5106796E0,-3.3112583E-1,-5.5749375E-1,1.3142858E-1,1.3663366E0,-4.6153847E-2,-2.082161E-1,1.8367347E-1,1.5702479E0,-5.9740257E-2,1.4828898E0,-6.0869563E-2,-6.131387E-1,5.714286E-1,1.756949E0,7.56238E-1,-5E-1,9.4736844E-1,-6.104032E-1,-2.5029796E-1,1.5505618E0,-0E0,-2.9931122E-1,5.869565E-1,2.6086956E-2,1.6475771E-1,1.7596567E0,-5.2631583E-2,5.8823533E-2,-6.419295E-2,1.1856288E0,-1.47651E-1,-2.6415095E-1,1.8189081E0,1.8815331E-1,1.4049587E0,-6.1417323E-1,7.692308E-1,1.304348E-1,2.6086956E-2,-5.581957E-2,-6.6435985E-2,1.3953489E-2,-5.1292248E-2,1.6756757E-1,6.0869563E-2,-1.9066937E-2,-6.594302E-2,1.4251497E-1,-1.0526316E-2,1.8532111E-1,2.6086956E-2,1.4405595E-1,-2.5E-2,3.529412E-2,-5.1685393E-2,5.8823533E-2,-5.454546E-2,1.8586956E-1,-1.0526316E-2,7.57764E-2,-5.074627E-2,-2.5E-2,1.5963303E-1,-6.44898E-2,1.1764706E-2,1.1764706E-2,1.0588236E-1],"categories":[],"categories_nodes":[],"categories_segments":[],"categories_sizes":[],"default_left":[0,0,0,0,0,0,0,0,0,0,0,0,0,0,0,0,0,0,0,0,0,0,0,0,0,0,0,0,0,0,0,0,0,0,0,0,0,0,0,0,0,0,0,0,0,0,0,0,0,0,0,0,0,0,0,0,0,0,0,0,0,0,0,0,0,0,0,0,0,0,0,0,0,0,0,0,0,0,0,0,0],"id":0,"left_children":[1,3,5,7,9,11,13,15,17,19,21,23,25,27,29,31,-1,33,-1,35,-1,37,-1,39,-1,41,43,45,47,49,51,53,55,57,-1,59,61,-1,-1,63,-1,-1,-1,65,67,69,71,73,75,77,79,-1,-1,-1,-1,-1,-1,-1,-1,-1,-1,-1,-1,-1,-1,-1,-1,-1,-1,-1,-1,-1,-1,-1,-1,-1,-1,-1,-1,-1,-1],"loss_changes":[4.9000928E2,6.1014465E1,1.2579401E2,3.7286667E1,5.397747E1,4.0771175E1,1.1005258E2,1.4934723E1,7.585146E0,4.982911E1,3.3184223E1,3.636587E1,3.4549667E1,4.6513733E1,8.624084E0,1.1261276E1,0E0,3.1778831E0,0E0,3.235553E1,0E0,2.63311E0,0E0,1.9207314E1,0E0,2.7469196E0,1.7178923E1,2.4695984E1,2.3736057E1,5.399454E0,8.2379866E-1,1.314743E0,1.0808638E1,2.9100037E-1,0E0,1.5494514E1,2.6839853E1,0E0,0E0,3.6004105E0,0E0,0E0,0E0,8.000095E0,3.6246934E0,1.9093937E0,1.4569397E1,1.45992985E1,9.979626E0,7.897682E-1,4.8868775E-1,0E0,0E0,0E0,0E0,0E0,0E0,0E0,0E0,0E0,0E0,0E0,0E0,0E0,0E0,0E0,0E0,0E0,0E0,0E0,0E0,0E0,0E0,0E0,0E0,0E0,0E0,0E0,0E0,0E0,0E0],"parents":[2147483647,0,0,1,1,2,2,3,3,4,4,5,5,6,6,7,7,8,8,9,9,10,10,11,11,12,12,13,13,14,14,15,15,17,17,19,19,21,21,23,23,25,25,26,26,27,27,28,28,29,29,30,30,31,31,32,32,33,33,35,35,36,36,39,39,43,43,44,44,45,45,46,46,47,47,48,48,49,49,50,50],"right_children":[2,4,6,8,10,12,14,16,18,20,22,24,26,28,30,32,-1,34,-1,36,-1,38,-1,40,-1,42,44,46,48,50,52,54,56,58,-1,60,62,-1,-1,64,-1,-1,-1,66,68,70,72,74,76,78,80,-1,-1,-1,-1,-1,-1,-1,-1,-1,-1,-1,-1,-1,-1,-1,-1,-1,-1,-1,-1,-1,-1,-1,-1,-1,-1,-1,-1,-1,-1],"split_conditions":[3.0445231E-2,2.9E1,2E0,1E0,1E0,2.4E1,1E0,1E0,4.65E2,1E0,3E1,1E0,2.7E1,1E0,2.5E1,1E0,1.3142858E-1,1E0,-4.6153847E-2,1E0,1.8367347E-1,1.27E2,-5.9740257E-2,6E0,-6.0869563E-2,1.9E0,1E0,5E0,2.82E2,2E0,1E0,1E0,1.3E1,7E0,-0E0,1.01E0,3.9E1,2.6086956E-2,1.6475771E-1,1E0,-5.2631583E-2,5.8823533E-2,-6.419295E-2,2E0,1E0,1.23E2,6.1E1,2.9E1,9E0,1.1E1,3.01E2,1.304348E-1,2.6086956E-2,-5.581957E-2,-6.6435985E-2,1.3953489E-2,-5.1292248E-2,1.6756757E-1,6.0869563E-2,-1.9066937E-2,-6.594302E-2,1.4251497E-1,-1.0526316E-2,1.8532111E-1,2.6086956E-2,1.4405595E-1,-2.5E-2,3.529412E-2,-5.1685393E-2,5.8823533E-2,-5.454546E-2,1.8586956E-1,-1.0526316E-2,7.57764E-2,-5.074627E-2,-2.5E-2,1.5963303E-1,-6.44898E-2,1.1764706E-2,1.1764706E-2,1.0588236E-1],"split_indices":[21,0,3,17,6,0,8,19,1,23,0,8,0,9,0,8,0,9,0,8,0,1,0,20,0,21,20,0,1,17,16,4,2,17,0,10,0,0,0,4,0,0,0,15,9,1,0,0,0,12,1,0,0,0,0,0,0,0,0,0,0,0,0,0,0,0,0,0,0,0,0,0,0,0,0,0,0,0,0,0,0],"split_type":[0,0,0,0,0,0,0,0,0,0,0,0,0,0,0,0,0,0,0,0,0,0,0,0,0,0,0,0,0,0,0,0,0,0,0,0,0,0,0,0,0,0,0,0,0,0,0,0,0,0,0,0,0,0,0,0,0,0,0,0,0,0,0,0,0,0,0,0,0,0,0,0,0,0,0,0,0,0,0,0,0],"sum_hessian":[1.6515E3,1.210875E3,4.40625E2,7.185E2,4.92375E2,1.47375E2,2.9325E2,7.04625E2,1.3875E1,4.545E2,3.7875E1,4.2375E1,1.05E2,2.565E2,3.675E1,7.0125E2,3.375E0,1.1625E1,2.25E0,4.4325E2,1.125E1,2.925E1,8.625E0,3.1875E1,1.05E1,6.75E1,3.75E1,1.92375E2,6.4125E1,3.3E1,3.75E0,5.97375E2,1.03875E2,1.0125E1,1.5E0,3.9825E2,4.5E1,1.875E0,2.7375E1,2.8125E1,3.75E0,1.125E0,6.6375E1,1.9875E1,1.7625E1,5.625E0,1.8675E2,3.4875E1,2.925E1,3.075E1,2.25E0,1.875E0,1.875E0,3.09375E2,2.88E2,4.2E1,6.1875E1,8.25E0,1.875E0,3.07125E2,9.1125E1,1.9875E1,2.5125E1,2.625E1,1.875E0,1.6875E1,3E0,7.5E0,1.0125E1,1.125E0,4.5E0,1.83E2,3.75E0,1.9125E1,1.575E1,3E0,2.625E1,2.9625E1,1.125E0,1.125E0,1.125E0],"tree_param":{"num_deleted":"0","num_feature":"24","num_nodes":"81","size_leaf_vector":"1"}},{"base_weights":[-0E0,8E-1,-2.6163724E-1,1.1226966E0,1.05465E-1,-1.8111846E-1,-6.634557E-2,1.3737596E0,1.4319809E-2,-3.9816934E-1,4.6254072E-1,-2.0529665E-3,-4.3337196E-1,3.890785E-1,1.5552648E0,-3.569405E-1,1.7837839E-1,-5.0119334E-1,1.3846155E-1,1.6728624E0,-4.7025496E-1,-4.2132777E-1,2.6837492E-1,-4.899696E-1,6.8235296E-1,-0E0,1.7538463E-1,1.6126429E0,-4E-1,-5.488959E-1,1.0909091E0,5E-1,-5.721519E-1,1.7741935E0,3.448276E-2,-4.883721E-1,1.1764706E-2,-4.849162E-1,4.7328246E-1,6.536284E-1,-4.5974782E-1,-6.232319E-1,-1.6373058E-1,9.714286E-1,-5.2631583E-2,3.6496352E-2,-4.6728972E-2,9.035533E-2,1.7103235E-1,-5.365854E-2,1.1764706E-2,-6.2020905E-2,1.0526316E-2,1.4482759E-1,2.6086956E-2,-4.0000003E-2,1.20000005E-1,-5.9007835E-2,-0E0,1.8883722E-1,8.292683E-2,-3.9285716E-2,-6.25E-2,-3.1257343E-2,-6.3569166E-2,9.90099E-3,1.3684212E-1,9.4990484E-2,-6.096257E-2,-5.5544253E-2,1.2857144E-1,-6.3372925E-2,-5.084746E-2,1.3125001E-1,-3.857988E-2,5.6842107E-2,1.5471698E-1],"categories":[],"categories_nodes":[],"categories_segments":[],"categories_sizes":[],"default_left":[0,0,0,0,0,0,0,0,0,0,0,0,0,0,0,0,0,0,0,0,0,0,0,0,0,0,0,0,0,0,0,0,0,0,0,0,0,0,0,0,0,0,0,0,0,0,0,0,0,0,0,0,0,0,0,0,0,0,0,0,0,0,0,0,0,0,0,0,0,0,0,0,0,0,0,0,0],"id":1,"left_children":[1,3,5,7,9,11,-1,13,15,17,19,21,23,25,27,29,-1,31,-1,33,35,37,39,41,43,45,-1,47,49,51,53,55,57,59,-1,61,-1,63,65,67,69,71,73,75,-1,-1,-1,-1,-1,-1,-1,-1,-1,-1,-1,-1,-1,-1,-1,-1,-1,-1,-1,-1,-1,-1,-1,-1,-1,-1,-1,-1,-1,-1,-1,-1,-1],"loss_changes":[3.4609372E2,9.121216E1,4.019284E1,7.737485E1,2.3630234E1,4.694757E1,0E0,3.9920746E1,3.5043507E1,1.072691E1,8.7436104E1,6.914951E1,2.7582436E1,1.9447939E1,2.208722E1,1.2862127E1,0E0,4.0069675E0,0E0,3.9131699E0,5.2743435E-1,1.3832573E1,1.0430026E2,1.7777199E1,7.935959E0,5.201583E0,0E0,1.1329163E1,5.050216E-1,1.9137964E0,1.2536459E0,3E0,5.0642014E-1,1.7786331E0,0E0,3.156147E-1,0E0,5.6154556E0,5.35056E0,9.148051E1,2.2240318E1,2.9075623E-2,4.0050125E1,3.1810474E0,0E0,0E0,0E0,0E0,0E0,0E0,0E0,0E0,0E0,0E0,0E0,0E0,0E0,0E0,0E0,0E0,0E0,0E0,0E0,0E0,0E0,0E0,0E0,0E0,0E0,0E0,0E0,0E0,0E0,0E0,0E0,0E0,0E0],"parents":[2147483647,0,0,1,1,2,2,3,3,4,4,5,5,7,7,8,8,9,9,10,10,11,11,12,12,13,13,14,14,15,15,17,17,19,19,20,20,21,21,22,22,23,23,24,24,25,25,27,27,28,28,29,29,30,30,31,31,32,32,33,33,35,35,37,37,38,38,39,39,40,40,41,41,42,42,43,43],"right_children":[2,4,6,8,10,12,-1,14,16,18,20,22,24,26,28,30,-1,32,-1,34,36,38,40,42,44,46,-1,48,50,52,54,56,58,60,-1,62,-1,64,66,68,70,72,74,76,-1,-1,-1,-1,-1,-1,-1,-1,-1,-1,-1,-1,-1,-1,-1,-1,-1,-1,-1,-1,-1,-1,-1,-1,-1,-1,-1,-1,-1,-1,-1,-1,-1],"split_conditions":[8.8E1,2.7E1,1.01E0,1E0,4.1E1,2.7E1,-6.634557E-2,1.2E1,2E0,3E0,5.2E1,1.2E1,1E0,7E0,1.2191361E2,2.4E1,1.7837839E-1,3.8E1,1.3846155E-1,7.7E1,8.3E1,5.5E1,1E0,4.1E1,3.0445231E-2,4E0,1.7538463E-1,1.8E1,2.4E1,2.1E1,4.0260868E1,3.4E1,1E0,1E0,3.448276E-2,1.01E0,1.1764706E-2,4E0,5.85E2,1E0,2.6E1,1E0,4.2E1,1E0,-5.2631583E-2,3.6496352E-2,-4.6728972E-2,9.035533E-2,1.7103235E-1,-5.365854E-2,1.1764706E-2,-6.2020905E-2,1.0526316E-2,1.4482759E-1,2.6086956E-2,-4.0000003E-2,1.20000005E-1,-5.9007835E-2,-0E0,1.8883722E-1,8.292683E-2,-3.9285716E-2,-6.25E-2,-3.1257343E-2,-6.3569166E-2,9.90099E-3,1.3684212E-1,9.4990484E-2,-6.096257E-2,-5.5544253E-2,1.2857144E-1,-6.3372925E-2,-5.084746E-2,1.3125001E-1,-3.857988E-2,5.6842107E-2,1.5471698E-1],"split_indices":[1,0,10,17,0,0,0,0,20,13,0,0,4,2,21,0,0,1,0,1,1,3,19,0,21,0,0,1,0,0,21,0,6,9,0,10,0,0,2,9,12,6,0,5,0,0,0,0,0,0,0,0,0,0,0,0,0,0,0,0,0,0,0,0,0,0,0,0,0,0,0,0,0,0,0,0,0],"split_type":[0,0,0,0,0,0,0,0,0,0,0,0,0,0,0,0,0,0,0,0,0,0,0,0,0,0,0,0,0,0,0,0,0,0,0,0,0,0,0,0,0,0,0,0,0,0,0,0,0,0,0,0,0,0,0,0,0,0,0,0,0,0,0,0,0,0,0,0,0,0,0,0,0,0,0,0,0],"sum_hessian":[1.6515E3,4.065E2,1.245E3,2.77125E2,1.29375E2,1.038375E3,2.06625E2,2.2575E2,5.1375E1,5.3625E1,7.575E1,6.07875E2,4.305E2,3.5625E1,1.90125E2,4.3125E1,8.25E0,5.1375E1,2.25E0,3.2625E1,4.3125E1,2.38125E2,3.6975E2,4.1025E2,2.025E1,2.85E1,7.125E0,1.84875E2,5.25E0,3.8625E1,4.5E0,3E0,4.8375E1,3E1,2.625E0,4.2E1,1.125E0,2.2275E2,1.5375E1,2.41875E2,1.27875E2,2.90625E2,1.19625E2,1.65E1,3.75E0,1.6125E1,1.2375E1,2.3625E1,1.6125E2,4.125E0,1.125E0,3.4875E1,3.75E0,2.625E0,1.875E0,1.5E0,1.5E0,4.6875E1,1.5E0,2.5875E1,4.125E0,2.7E1,1.5E1,1.05375E2,1.17375E2,1.1625E1,3.75E0,1.96125E2,4.575E1,1.21875E2,6E0,2.62125E2,2.85E1,1.5E1,1.04625E2,1.0875E1,5.625E0],"tree_param":{"num_deleted":"0","num_feature":"24","num_nodes":"77","size_leaf_vector":"1"}},{"base_weights":[-0E0,-3.170625E-1,1.9911943E-1,1.0323974E0,-4.3590966E-1,1.5706806E-1,1.2462988E0,-4.5621538E-1,5.660377E-1,1.1351352E0,-4.32E-1,1.502455E0,5.7142857E-2,-4.9013737E-1,8.4690556E-2,-2.1782178E-1,1.1932774E0,1.5428571E-1,6.3829786E-1,-5.7142857E-2,-5.3061225E-2,1.5869191E0,-1.0526316E-1,8.5714287E-1,-4.347826E-1,3.6893204E-1,-5.0838166E-1,-1.11310594E-1,1.7538463E-1,-3.478261E-1,5.8823533E-2,7.027027E-1,1.6981132E-1,-3.529412E-2,9.4736844E-2,-4.0000003E-2,2.6086956E-2,1.6547842E-1,7.1428575E-2,-4.6153847E-2,4.0000003E-2,-4.0000003E-2,1.2727273E-1,-6.0240965E-2,5.8823533E-2,1.6759777E-2,1.3142858E-1,-4.4843476E-2,-6.25E-2,1.4146341E-1,-2.2900764E-2,-1.6949153E-2,-5.365854E-2,9.4339624E-2,6.8965517E-3],"categories":[],"categories_nodes":[],"categories_segments":[],"categories_sizes":[],"default_left":[0,0,0,0,0,0,0,0,0,0,0,0,0,0,0,0,0,0,0,0,0,0,0,0,0,0,0,0,0,0,0,0,0,0,0,0,0,0,0,0,0,0,0,0,0,0,0,0,0,0,0,0,0,0,0],"id":2,"left_children":[1,3,-1,5,7,9,11,13,15,17,19,21,23,25,27,29,31,-1,33,35,-1,37,39,41,43,45,47,49,-1,51,-1,53,-1,-1,-1,-1,-1,-1,-1,-1,-1,-1,-1,-1,-1,-1,-1,-1,-1,-1,-1,-1,-1,-1,-1],"loss_changes":[1.0439092E3,2.2921133E2,0E0,2.1476593E1,2.6943588E1,1.42459135E1,2.8204773E1,2.3640106E1,1.3289116E1,8.889837E-1,5.472655E-1,1.0538345E1,7.2596273E0,1.9157898E1,2.5304476E1,1.5275885E0,2.4906693E0,0E0,2.1342466E0,5.813664E-1,0E0,3.1189575E0,1.0396761E0,4.1662335E0,2.3264413E0,4.6807804E0,8.008331E0,1.2828556E1,0E0,2.9616988E-1,0E0,1.3459005E0,0E0,0E0,0E0,0E0,0E0,0E0,0E0,0E0,0E0,0E0,0E0,0E0,0E0,0E0,0E0,0E0,0E0,0E0,0E0,0E0,0E0,0E0,0E0],"parents":[2147483647,0,0,1,1,3,3,4,4,5,5,6,6,7,7,8,8,9,9,10,10,11,11,12,12,13,13,14,14,15,15,16,16,18,18,19,19,21,21,22,22,23,23,24,24,25,25,26,26,27,27,29,29,31,31],"right_children":[2,4,-1,6,8,10,12,14,16,18,20,22,24,26,28,30,32,-1,34,36,-1,38,40,42,44,46,48,50,-1,52,-1,54,-1,-1,-1,-1,-1,-1,-1,-1,-1,-1,-1,-1,-1,-1,-1,-1,-1,-1,-1,-1,-1,-1,-1],"split_conditions":[1.01E0,1E0,1.9911943E-1,1.19E2,6.5E1,6E0,1E0,1E0,1E0,2E0,7E0,3.36E2,1.7E1,8E0,4.19E2,3.23E2,2E0,1.5428571E-1,6.1E1,6.9E1,-5.3061225E-2,1E0,1.8292E4,9E0,3.649E3,1.6777779E1,3.0445231E-2,6E0,1.7538463E-1,5E0,5.8823533E-2,1E0,1.6981132E-1,-3.529412E-2,9.4736844E-2,-4.0000003E-2,2.6086956E-2,1.6547842E-1,7.1428575E-2,-4.6153847E-2,4.0000003E-2,-4.0000003E-2,1.2727273E-1,-6.0240965E-2,5.8823533E-2,1.6759777E-2,1.3142858E-1,-4.4843476E-2,-6.25E-2,1.4146341E-1,-2.2900764E-2,-1.6949153E-2,-5.365854E-2,9.4339624E-2,6.8965517E-3],"split_indices":[10,0,0,1,0,2,9,7,16,3,2,2,2,1,21,1,13,0,1,1,0,7,1,2,1,21,21,2,0,2,0,20,0,0,0,0,0,0,0,0,0,0,0,0,0,0,0,0,0,0,0,0,0,0,0],"split_type":[0,0,0,0,0,0,0,0,0,0,0,0,0,0,0,0,0,0,0,0,0,0,0,0,0,0,0,0,0,0,0,0,0,0,0,0,0,0,0,0,0,0,0,0,0,0,0,0,0,0,0,0,0,0,0],"sum_hessian":[1.6515E3,1.425375E3,2.26125E2,1.1475E2,1.310625E3,2.2875E1,9.1875E1,1.285125E3,2.55E1,8.25E0,1.4625E1,7.5375E1,1.65E1,1.209375E3,7.575E1,1.1625E1,1.3875E1,3.375E0,4.875E0,3.375E0,1.125E1,7.1625E1,3.75E0,6E0,1.05E1,2.475E1,1.184625E3,6.8625E1,7.125E0,1.05E1,1.125E0,8.25E0,5.625E0,1.125E0,3.75E0,1.5E0,1.875E0,6.5625E1,6E0,2.25E0,1.5E0,1.5E0,4.5E0,9.375E0,1.125E0,2.1375E1,3.375E0,7.85625E2,3.99E2,4.125E0,6.45E1,6.375E0,4.125E0,5.625E0,2.625E0],"tree_param":{"num_deleted":"0","num_feature":"24","num_nodes":"55","size_leaf_vector":"1"}},{"base_weights":[-0E0,1.0568749E-1,-6.637314E-2,3.0484402E-1,-3.390886E-1,8.692001E-2,6.355797E-1,-5.9574467E-1,2.3518687E-1,-6.5598026E-2,9.497207E-1,1.0490018E0,-3.4438503E-1,-3.181818E-1,-6.151142E-1,1.0626992E-2,1.5121951E0,3.9584684E-1,-3.473434E-1,6.264501E-1,1.3993174E0,1.5269144E0,3.3370662E-1,-4.410012E-1,4.6153846E-1,6.3414633E-1,-5.7342654E-1,-6.535142E-2,-5.1359516E-1,2.5475842E-1,-6.165413E-1,1.8857144E-1,-5E-2,-5.7483446E-2,1.3148615E-1,-6.244842E-2,2.9739777E-3,8.793774E-2,2.4175825E-2,1.5345454E-1,-4.6153847E-2,1.5908735E-1,-1.4285715E-2,8.275863E-2,-1.9679634E-2,-5.6578945E-2,-1.0878662E-2,1.3953489E-2,1.3846155E-1,-4.0000003E-2,1.1724138E-1,-1.5384616E-2,-6.2400002E-2,-3.1578947E-2,-6.336634E-2,-8.941176E-3,7.969925E-2,-6.456693E-2,-0E0],"categories":[],"categories_nodes":[],"categories_segments":[],"categories_sizes":[],"default_left":[0,0,0,0,0,0,0,0,0,0,0,0,0,0,0,0,0,0,0,0,0,0,0,0,0,0,0,0,0,0,0,0,0,0,0,0,0,0,0,0,0,0,0,0,0,0,0,0,0,0,0,0,0,0,0,0,0,0,0],"id":3,"left_children":[1,3,-1,5,7,9,11,13,15,17,19,21,23,25,27,29,31,33,35,37,39,41,43,45,47,49,51,-1,53,55,57,-1,-1,-1,-1,-1,-1,-1,-1,-1,-1,-1,-1,-1,-1,-1,-1,-1,-1,-1,-1,-1,-1,-1,-1,-1,-1,-1,-1],"loss_changes":[1.159899E2,1.2645177E2,0E0,7.099293E1,6.523179E1,7.840929E1,1.5892259E2,1.4467316E0,3.9306553E1,6.6036285E1,1.2131454E1,9.366974E1,9.304038E0,5.7113256E0,7.734375E-1,1.816681E1,1.6350525E1,1.7259087E2,3.296381E1,5.0293922E0,9.924561E0,1.7835388E1,2.9409126E1,4.2861977E0,3.6708407E0,3.321783E0,2.833004E-1,0E0,1.7652225E0,1.600401E1,5.971222E-1,0E0,0E0,0E0,0E0,0E0,0E0,0E0,0E0,0E0,0E0,0E0,0E0,0E0,0E0,0E0,0E0,0E0,0E0,0E0,0E0,0E0,0E0,0E0,0E0,0E0,0E0,0E0,0E0],"parents":[2147483647,0,0,1,1,3,3,4,4,5,5,6,6,7,7,8,8,9,9,10,10,11,11,12,12,13,13,14,14,15,15,16,16,17,17,18,18,19,19,20,20,21,21,22,22,23,23,24,24,25,25,26,26,28,28,29,29,30,30],"right_children":[2,4,-1,6,8,10,12,14,16,18,20,22,24,26,28,30,32,34,36,38,40,42,44,46,48,50,52,-1,54,56,58,-1,-1,-1,-1,-1,-1,-1,-1,-1,-1,-1,-1,-1,-1,-1,-1,-1,-1,-1,-1,-1,-1,-1,-1,-1,-1,-1,-1],"split_conditions":[1.01E0,3.0445231E-2,-6.637314E-2,2.9E1,1E0,1E0,4.1E1,1E1,7.5695056E2,1.2E1,4.9E2,1.1E1,1E0,9E0,2.9E1,3E0,2.25E2,1E0,1.4E1,1.85E2,2.51E2,1E0,3E1,5.2E1,1.5E1,1.78E2,2.3219563E1,-6.535142E-2,1.9E1,2.7E1,1.519E3,1.8857144E-1,-5E-2,-5.7483446E-2,1.3148615E-1,-6.244842E-2,2.9739777E-3,8.793774E-2,2.4175825E-2,1.5345454E-1,-4.6153847E-2,1.5908735E-1,-1.4285715E-2,8.275863E-2,-1.9679634E-2,-5.6578945E-2,-1.0878662E-2,1.3953489E-2,1.3846155E-1,-4.0000003E-2,1.1724138E-1,-1.5384616E-2,-6.2400002E-2,-3.1578947E-2,-6.336634E-2,-8.941176E-3,7.969925E-2,-6.456693E-2,-0E0],"split_indices":[10,21,0,0,9,9,0,0,21,0,1,2,9,21,0,13,1,0,2,1,2,6,0,0,3,1,21,0,21,0,1,0,0,0,0,0,0,0,0,0,0,0,0,0,0,0,0,0,0,0,0,0,0,0,0,0,0,0,0],"split_type":[0,0,0,0,0,0,0,0,0,0,0,0,0,0,0,0,0,0,0,0,0,0,0,0,0,0,0,0,0,0,0,0,0,0,0,0,0,0,0,0,0,0,0,0,0,0,0,0,0,0,0,0,0,0,0,0,0,0,0],"sum_hessian":[1.6515E3,1.425375E3,2.26125E2,9.8475E2,4.40625E2,5.94375E2,3.90375E2,3.045E2,1.36125E2,5.05875E2,8.85E1,2.745E2,1.15875E2,2.1E1,2.835E2,1.16625E2,1.95E1,1.91625E2,3.1425E2,5.2875E1,3.5625E1,1.63875E2,1.10625E2,1.03875E2,1.2E1,4.125E0,1.6875E1,2.0175E2,8.175E1,8.4375E1,3.225E1,1.65E1,3E0,9.3375E1,9.825E1,1.8075E2,1.335E2,3.1125E1,2.175E1,3.3375E1,2.25E0,1.57875E2,6E0,5.7E1,5.3625E1,7.5E1,2.8875E1,9.75E0,2.25E0,1.5E0,2.625E0,2.25E0,1.4625E1,3.225E1,4.95E1,5.2125E1,3.225E1,3.075E1,1.5E0],"tree_param":{"num_deleted":"0","num_feature":"24","num_nodes":"59","size_leaf_vector":"1"}},{"base_weights":[1.6461917E-4,-3.1365293E-1,7.978742E-1,-4.9790192E-1,-5.185327E-2,1.3522172E-1,1.1076157E0,-5.3062046E-1,9.611027E-1,-1.4444865E-1,9.6970576E-1,8.5297173E-1,-1.800396E-1,1.2900696E0,-3.158531E-1,-5.415935E-1,1.19609535E-1,1.2237351E0,-4.4973023E-2,-1.9687079E-1,1.5660757E-1,1.3811678E0,-5.828112E-2,1.2802541E0,-5.9590418E-2,-5.9888643E-1,5.1813173E-1,-3.1149015E-1,1.3629193E0,-4.8470452E-1,8.77832E-1,-5.9540164E-1,-2.3559977E-1,1.3784378E0,-1.109264E-4,-2.8524026E-1,5.354147E-1,2.4224672E-2,1.444485E-1,1.4984565E0,-5.1310062E-2,5.570243E-2,-6.28339E-2,1.0472666E0,-1.4446504E-1,9.984147E-2,-5.2667844E-1,1.527738E0,7.888676E-1,-6.004446E-1,7.187277E-1,1.09287776E-1,9.777847E-3,-5.431335E-2,-6.499817E-2,8.60345E-3,-5.6994934E-2,1.4757332E-1,5.7716843E-2,-1.8099185E-2,-6.438967E-2,1.24119796E-1,-9.864602E-3,1.5697406E-1,2.4530267E-2,1.2578247E-1,-2.4239626E-2,3.1721428E-2,-5.0362498E-2,1.3284728E-2,-6.061211E-2,1.5581654E-1,-1.0446855E-2,2.4557086E-2,1.3722014E-1,-6.317844E-2,1.137979E-2,9.9823095E-2,1.0132793E-2],"categories":[],"categories_nodes":[],"categories_segments":[],"categories_sizes":[],"default_left":[0,0,0,0,0,0,0,0,0,0,0,0,0,0,0,0,0,0,0,0,0,0,0,0,0,0,0,0,0,0,0,0,0,0,0,0,0,0,0,0,0,0,0,0,0,0,0,0,0,0,0,0,0,0,0,0,0,0,0,0,0,0,0,0,0,0,0,0,0,0,0,0,0,0,0,0,0,0,0],"id":4,"left_children":[1,3,5,7,9,11,13,15,17,19,21,23,25,27,29,31,-1,33,-1,35,-1,37,-1,39,-1,41,43,45,47,49,51,53,55,57,-1,59,61,-1,-1,63,-1,-1,-1,65,67,-1,69,71,73,75,77,-1,-1,-1,-1,-1,-1,-1,-1,-1,-1,-1,-1,-1,-1,-1,-1,-1,-1,-1,-1,-1,-1,-1,-1,-1,-1,-1,-1],"loss_changes":[4.1272684E2,5.704837E1,9.538971E1,3.3655914E1,4.6477493E1,3.3961792E1,8.275528E1,1.3527603E1,6.325141E0,4.0661884E1,2.6894722E1,2.9099464E1,3.0909111E1,3.3237823E1,7.8480263E0,1.0992691E1,0E0,2.5421696E0,0E0,2.8466213E1,0E0,1.9996681E0,0E0,1.4725254E1,0E0,2.5923595E0,1.409545E1,4.204364E0,2.42641E1,5.0150003E0,7.183571E-1,1.2855835E0,1.1101228E1,7.638359E-2,0E0,1.4505358E1,2.1362062E1,0E0,0E0,2.478119E0,0E0,0E0,0E0,6.342575E0,3.2336197E0,0E0,7.020991E-1,1.0496643E1,1.9348896E1,7.560587E-1,4.7561812E-1,0E0,0E0,0E0,0E0,0E0,0E0,0E0,0E0,0E0,0E0,0E0,0E0,0E0,0E0,0E0,0E0,0E0,0E0,0E0,0E0,0E0,0E0,0E0,0E0,0E0,0E0,0E0,0E0],"parents":[2147483647,0,0,1,1,2,2,3,3,4,4,5,5,6,6,7,7,8,8,9,9,10,10,11,11,12,12,13,13,14,14,15,15,17,17,19,19,21,21,23,23,25,25,26,26,27,27,28,28,29,29,30,30,31,31,32,32,33,33,35,35,36,36,39,39,43,43,44,44,46,46,47,47,48,48,49,49,50,50],"right_children":[2,4,6,8,10,12,14,16,18,20,22,24,26,28,30,32,-1,34,-1,36,-1,38,-1,40,-1,42,44,46,48,50,52,54,56,58,-1,60,62,-1,-1,64,-1,-1,-1,66,68,-1,70,72,74,76,78,-1,-1,-1,-1,-1,-1,-1,-1,-1,-1,-1,-1,-1,-1,-1,-1,-1,-1,-1,-1,-1,-1,-1,-1,-1,-1,-1,-1],"split_conditions":[3.0445231E-2,2.9E1,2E0,1E0,1E0,2.4E1,1E0,1E0,4.65E2,1E0,3E1,1E0,2.7E1,9E0,2.5E1,1E0,1.19609535E-1,1E0,-4.4973023E-2,1E0,1.5660757E-1,1.27E2,-5.828112E-2,6E0,-5.9590418E-2,1.9E0,1E0,9.8E1,1E0,2E0,1E0,1E0,8E0,7E0,-1.109264E-4,1.01E0,3.9E1,2.4224672E-2,1.444485E-1,1E0,-5.1310062E-2,5.570243E-2,-6.28339E-2,2E0,1E0,9.984147E-2,2.8041801E0,6.1E1,2.82E2,8E0,5E0,1.09287776E-1,9.777847E-3,-5.431335E-2,-6.499817E-2,8.60345E-3,-5.6994934E-2,1.4757332E-1,5.7716843E-2,-1.8099185E-2,-6.438967E-2,1.24119796E-1,-9.864602E-3,1.5697406E-1,2.4530267E-2,1.2578247E-1,-2.4239626E-2,3.1721428E-2,-5.0362498E-2,1.3284728E-2,-6.061211E-2,1.5581654E-1,-1.0446855E-2,2.4557086E-2,1.3722014E-1,-6.317844E-2,1.137979E-2,9.9823095E-2,1.0132793E-2],"split_indices":[21,0,3,17,6,0,8,19,1,23,0,8,0,0,0,8,0,9,0,8,0,1,0,20,0,21,20,1,9,17,7,4,0,17,0,10,0,0,0,4,0,0,0,15,9,0,21,0,1,20,12,0,0,0,0,0,0,0,0,0,0,0,0,0,0,0,0,0,0,0,0,0,0,0,0,0,0,0,0],"split_type":[0,0,0,0,0,0,0,0,0,0,0,0,0,0,0,0,0,0,0,0,0,0,0,0,0,0,0,0,0,0,0,0,0,0,0,0,0,0,0,0,0,0,0,0,0,0,0,0,0,0,0,0,0,0,0,0,0,0,0,0,0,0,0,0,0,0,0,0,0,0,0,0,0,0,0,0,0,0,0],"sum_hessian":[1.6466967E3,1.1822201E3,4.644765E2,6.9335205E2,4.8886807E2,1.4840959E2,3.1606693E2,6.7876685E2,1.4585202E1,4.4902637E2,3.984171E1,4.4772106E1,1.0363748E2,2.8024063E2,3.582628E1,6.751626E2,3.6042316E0,1.2408013E1,2.1771882E0,4.3653293E2,1.2493443E1,3.1581944E1,8.259764E0,3.4665436E1,1.0106668E1,6.4865555E1,3.8771923E1,1.2050127E1,2.6819052E2,3.1906868E1,3.9194086E0,5.733881E2,1.017745E2,1.0905241E1,1.5027725E0,3.9007108E2,4.646184E1,1.917463E0,2.966448E1,3.1051727E1,3.6137094E0,1.1666315E0,6.3698925E1,2.1234213E1,1.753771E1,1.1866949E0,1.0863432E1,2.0707497E2,6.1115547E1,2.9564554E1,2.3423135E0,2.7580407E0,1.1613679E0,2.984915E2,2.7489664E2,5.225216E1,4.9522335E1,8.973834E0,1.9314072E0,3.0339096E2,8.668012E1,2.1534218E1,2.4927622E1,2.9141422E1,1.910306E0,1.827518E1,2.9590309E0,7.724763E0,9.812947E0,1.0956013E0,9.767831E0,2.0332986E2,3.7450993E0,3.2379444E1,2.8736103E1,2.8432434E1,1.1321214E0,1.1877682E0,1.1545454E0],"tree_param":{"num_deleted":"0","num_feature":"24","num_nodes":"79","size_leaf_vector":"1"}},{"base_weights":[1.8546048E-4,7.153783E-1,-2.4913071E-1,9.8153955E-1,1.0318671E-1,-1.7220019E-1,-6.4780675E-2,1.1815697E0,1.7609375E-2,-3.7829605E-1,4.2517054E-1,-2.6685544E-3,-4.1787142E-1,3.5928214E-1,1.3225409E0,-5.2077883E-1,1.048124E0,-4.8172808E-1,1.2311474E-1,1.4396412E0,-4.5490193E-1,-4.0567654E-1,2.4605997E-1,-4.743193E-1,6.2260157E-1,-1.3909113E-1,1.1755245E0,1.3736677E0,-1.9236581E-1,-5.746073E-1,5.579498E-2,-3.9424255E-2,1.1989237E0,4.9863923E-1,-5.5453306E-1,1.5183855E0,3.2205474E-1,-4.7293785E-1,1.0795693E-2,-4.692667E-1,4.4545066E-1,5.832565E-1,-4.419796E-1,-6.083412E-1,-1.5679096E-1,8.6931074E-1,-5.0887585E-2,8.118263E-3,-5.8380242E-2,1.3338427E-1,-3.540292E-2,7.988136E-2,1.4500742E-1,-5.4532763E-2,5.5824693E-2,-6.294473E-2,-2.4600308E-2,6.606443E-2,1.5154602E-1,-3.865366E-2,1.1487525E-1,-5.725816E-2,-5.348266E-4,1.6046059E-1,7.543173E-2,3.835546E-2,1.0064375E-2,-3.7945826E-2,-6.0928028E-2,-2.9766813E-2,-6.220911E-2,2.537201E-3,1.0857745E-1,8.348245E-2,-5.963573E-2,-5.3836882E-2,1.14628576E-1,-6.199038E-2,-4.815164E-2,1.1545756E-1,-3.7274916E-2,9.707659E-2,-3.5717428E-2],"categories":[],"categories_nodes":[],"categories_segments":[],"categories_sizes":[],"default_left":[0,0,0,0,0,0,0,0,0,0,0,0,0,0,0,0,0,0,0,0,0,0,0,0,0,0,0,0,0,0,0,0,0,0,0,0,0,0,0,0,0,0,0,0,0,0,0,0,0,0,0,0,0,0,0,0,0,0,0,0,0,0,0,0,0,0,0,0,0,0,0,0,0,0,0,0,0,0,0,0,0,0,0],"id":5,"left_children":[1,3,5,7,9,11,-1,13,15,17,19,21,23,25,27,29,31,33,-1,35,37,39,41,43,45,47,49,51,53,55,-1,-1,57,59,61,63,65,67,-1,69,71,73,75,77,79,81,-1,-1,-1,-1,-1,-1,-1,-1,-1,-1,-1,-1,-1,-1,-1,-1,-1,-1,-1,-1,-1,-1,-1,-1,-1,-1,-1,-1,-1,-1,-1,-1,-1,-1,-1,-1,-1],"loss_changes":[2.9398883E2,6.93425E1,3.7385147E1,5.7230957E1,2.0355364E1,4.273829E1,0E0,2.8027344E1,2.9420023E1,9.37109E0,7.076834E1,6.106416E1,2.490384E1,1.53603E1,1.6492432E1,2.3443136E0,4.429369E0,3.8642454E0,0E0,2.7425308E0,4.8566055E-1,1.2791927E1,8.765406E1,1.6841797E1,6.581889E0,2.4071512E0,3.9273338E0,7.7495117E0,2.349112E0,4.5223236E-1,0E0,0E0,1.847086E0,2.746671E0,4.6541786E-1,1.031723E0,1.1591524E-2,2.9986858E-1,0E0,5.500553E0,4.4578447E0,7.564651E1,1.9671589E1,1.1139679E-1,3.4265736E1,2.6395407E0,0E0,0E0,0E0,0E0,0E0,0E0,0E0,0E0,0E0,0E0,0E0,0E0,0E0,0E0,0E0,0E0,0E0,0E0,0E0,0E0,0E0,0E0,0E0,0E0,0E0,0E0,0E0,0E0,0E0,0E0,0E0,0E0,0E0,0E0,0E0,0E0,0E0],"parents":[2147483647,0,0,1,1,2,2,3,3,4,4,5,5,7,7,8,8,9,9,10,10,11,11,12,12,13,13,14,14,15,15,16,16,17,17,19,19,20,20,21,21,22,22,23,23,24,24,25,25,26,26,27,27,28,28,29,29,32,32,33,33,34,34,35,35,36,36,37,37,39,39,40,40,41,41,42,42,43,43,44,44,45,45],"right_children":[2,4,6,8,10,12,-1,14,16,18,20,22,24,26,28,30,32,34,-1,36,38,40,42,44,46,48,50,52,54,56,-1,-1,58,60,62,64,66,68,-1,70,72,74,76,78,80,82,-1,-1,-1,-1,-1,-1,-1,-1,-1,-1,-1,-1,-1,-1,-1,-1,-1,-1,-1,-1,-1,-1,-1,-1,-1,-1,-1,-1,-1,-1,-1,-1,-1,-1,-1,-1,-1],"split_conditions":[8.8E1,2.7E1,1.01E0,1E0,4.1E1,2.7E1,-6.4780675E-2,1.2E1,8.55E0,3E0,5.2E1,1.2E1,1E0,6E0,1.10171425E2,2.2E1,1.8E1,3.8E1,1.2311474E-1,7.7E1,8.3E1,5.5E1,1E0,4.1E1,3.0445231E-2,6.9E1,1.01E0,1.8E1,2.4E1,5E1,5.579498E-2,-3.9424255E-2,2E0,3.4E1,1E0,1E0,4.6E1,1.01E0,1.0795693E-2,4E0,3.36E2,1E0,2.6E1,1E0,4.2E1,1E0,-5.0887585E-2,8.118263E-3,-5.8380242E-2,1.3338427E-1,-3.540292E-2,7.988136E-2,1.4500742E-1,-5.4532763E-2,5.5824693E-2,-6.294473E-2,-2.4600308E-2,6.606443E-2,1.5154602E-1,-3.865366E-2,1.1487525E-1,-5.725816E-2,-5.348266E-4,1.6046059E-1,7.543173E-2,3.835546E-2,1.0064375E-2,-3.7945826E-2,-6.0928028E-2,-2.9766813E-2,-6.220911E-2,2.537201E-3,1.0857745E-1,8.348245E-2,-5.963573E-2,-5.3836882E-2,1.14628576E-1,-6.199038E-2,-4.815164E-2,1.1545756E-1,-3.7274916E-2,9.707659E-2,-3.5717428E-2],"split_indices":[1,0,10,17,0,0,0,0,21,13,0,0,4,2,21,0,1,1,0,1,1,3,19,0,21,1,10,1,0,1,0,0,20,0,6,9,0,10,0,0,2,9,12,6,0,9,0,0,0,0,0,0,0,0,0,0,0,0,0,0,0,0,0,0,0,0,0,0,0,0,0,0,0,0,0,0,0,0,0,0,0,0,0],"split_type":[0,0,0,0,0,0,0,0,0,0,0,0,0,0,0,0,0,0,0,0,0,0,0,0,0,0,0,0,0,0,0,0,0,0,0,0,0,0,0,0,0,0,0,0,0,0,0,0,0,0,0,0,0,0,0,0,0,0,0,0,0,0,0,0,0,0,0,0,0,0,0,0,0,0,0,0,0,0,0,0,0,0,0],"sum_hessian":[1.6467595E3,4.2518808E2,1.2215714E3,2.9592575E2,1.2926233E2,1.0251796E3,1.9639185E2,2.4488303E2,5.1042725E1,5.1730923E1,7.753141E1,6.071863E2,4.1799335E2,3.6357533E1,2.0852548E2,3.385169E1,1.7191036E1,4.9265526E1,2.4653976E0,3.572032E1,4.181109E1,2.3148557E2,3.7570068E2,3.9699942E2,2.099394E1,2.3089417E1,1.3268114E1,2.0180788E2,6.7176075E0,3.2687893E1,1.1637945E0,1.4743972E0,1.5716639E1,3.0013514E0,4.626417E1,3.303413E1,2.6861887E0,4.0667717E1,1.1433743E0,2.1581041E2,1.5675165E1,2.5223627E2,1.23464424E2,2.7852438E2,1.1847502E2,1.742604E1,3.5678995E0,1.5987807E1,7.101609E0,1.2139548E1,1.128566E0,2.5020174E1,1.767877E2,4.7551E0,1.962508E0,2.7228302E1,5.459591E0,6.962985E0,8.753654E0,1.4425914E0,1.5587598E0,4.4750866E1,1.5133065E0,2.8695898E1,4.3382344E0,1.5291324E0,1.1570562E0,2.6370565E1,1.4297151E1,1.03049385E2,1.1276102E2,1.0093223E1,5.581943E0,2.0813998E2,4.4096275E1,1.170235E2,6.4409304E0,2.5168994E2,2.683446E1,1.613739E1,1.0233763E2,1.6287254E1,1.1387874E0],"tree_param":{"num_deleted":"0","num_feature":"24","num_nodes":"83","size_leaf_vector":"1"}},{"base_weights":[-3.2465378E-4,-3.023129E-1,1.6468206E-1,9.0526944E-1,-4.1902542E-1,1.4093104E-1,1.0811259E0,-4.392459E-1,5.1890093E-1,1.0174413E0,-4.2432398E-1,1.2815596E0,5.946972E-2,-4.7320092E-1,8.435558E-2,-2.1548963E-1,1.0745444E0,1.3710648E-1,5.785537E-1,-6.622923E-2,-5.2086752E-2,1.3477144E0,-1.0296758E-1,8.018966E-1,-4.2232978E-1,3.4327748E-1,-4.9150783E-1,-1.0017113E-1,1.4932156E-1,-3.4346747E-1,5.600315E-2,6.512126E-1,1.4876358E-1,-3.517014E-2,8.591559E-2,-3.9785344E-2,2.3879565E-2,1.4009385E-1,6.320617E-2,3.9564386E-2,-4.582582E-2,1.0669535E-1,-3.4708302E-2,-5.9124943E-2,5.5749275E-2,1.5582572E-2,1.1846457E-1,-4.3215107E-2,-6.088204E-2,1.2811713E-1,-2.149878E-2,-1.7012823E-2,-5.2911658E-2,8.75521E-2,5.482098E-3],"categories":[],"categories_nodes":[],"categories_segments":[],"categories_sizes":[],"default_left":[0,0,0,0,0,0,0,0,0,0,0,0,0,0,0,0,0,0,0,0,0,0,0,0,0,0,0,0,0,0,0,0,0,0,0,0,0,0,0,0,0,0,0,0,0,0,0,0,0,0,0,0,0,0,0],"id":6,"left_children":[1,3,-1,5,7,9,11,13,15,17,19,21,23,25,27,29,31,-1,33,35,-1,37,39,41,43,45,47,49,-1,51,-1,53,-1,-1,-1,-1,-1,-1,-1,-1,-1,-1,-1,-1,-1,-1,-1,-1,-1,-1,-1,-1,-1,-1,-1],"loss_changes":[8.200324E2,1.9673038E2,0E0,1.6393661E1,2.4333923E1,1.2408968E1,2.0385483E1,2.2170609E1,1.1364422E1,7.234001E-1,4.979887E-1,7.785553E0,6.5758815E0,1.7643768E1,2.0077757E1,1.4413153E0,1.7764893E0,0E0,1.8919487E0,5.417402E-1,0E0,2.1521912E0,1.0203364E0,2.5652885E0,2.188241E0,3.9519215E0,7.7021484E0,1.1173698E1,0E0,2.7752686E-1,0E0,1.2271094E0,0E0,0E0,0E0,0E0,0E0,0E0,0E0,0E0,0E0,0E0,0E0,0E0,0E0,0E0,0E0,0E0,0E0,0E0,0E0,0E0,0E0,0E0,0E0],"parents":[2147483647,0,0,1,1,3,3,4,4,5,5,6,6,7,7,8,8,9,9,10,10,11,11,12,12,13,13,14,14,15,15,16,16,18,18,19,19,21,21,22,22,23,23,24,24,25,25,26,26,27,27,29,29,31,31],"right_children":[2,4,-1,6,8,10,12,14,16,18,20,22,24,26,28,30,32,-1,34,36,-1,38,40,42,44,46,48,50,-1,52,-1,54,-1,-1,-1,-1,-1,-1,-1,-1,-1,-1,-1,-1,-1,-1,-1,-1,-1,-1,-1,-1,-1,-1,-1],"split_conditions":[1.01E0,1E0,1.6468206E-1,1.19E2,6.5E1,6E0,1E0,1E0,1E0,2E0,7E0,3.36E2,5E0,8E0,4.19E2,3.23E2,2E0,1.3710648E-1,6.1E1,6.9E1,-5.2086752E-2,1E0,1.92E2,1.7E1,3.649E3,1.6777779E1,3.0445231E-2,6E0,1.4932156E-1,5E0,5.600315E-2,4.2E1,1.4876358E-1,-3.517014E-2,8.591559E-2,-3.9785344E-2,2.3879565E-2,1.4009385E-1,6.320617E-2,3.9564386E-2,-4.582582E-2,1.0669535E-1,-3.4708302E-2,-5.9124943E-2,5.5749275E-2,1.5582572E-2,1.1846457E-1,-4.3215107E-2,-6.088204E-2,1.2811713E-1,-2.149878E-2,-1.7012823E-2,-5.2911658E-2,8.75521E-2,5.482098E-3],"split_indices":[10,0,0,1,0,2,9,7,16,3,2,2,3,1,21,1,13,0,1,1,0,7,3,2,1,21,21,2,0,2,0,21,0,0,0,0,0,0,0,0,0,0,0,0,0,0,0,0,0,0,0,0,0,0,0],"split_type":[0,0,0,0,0,0,0,0,0,0,0,0,0,0,0,0,0,0,0,0,0,0,0,0,0,0,0,0,0,0,0,0,0,0,0,0,0,0,0,0,0,0,0,0,0,0,0,0,0,0,0,0,0,0,0],"sum_hessian":[1.6465754E3,1.3921538E3,2.5442159E2,1.22097595E2,1.2700563E3,2.3174389E1,9.892321E1,1.2437738E3,2.6282478E1,8.772061E0,1.4402327E1,8.2486244E1,1.643696E1,1.1681188E3,7.565502E1,1.1584067E1,1.469841E1,3.6816788E0,5.090382E0,3.4163964E0,1.098593E1,7.875003E1,3.736213E0,6.2073674E0,1.0229593E1,2.5227652E1,1.1428911E3,6.77149E1,7.94012E0,1.042142E1,1.162647E0,8.531674E0,6.166736E0,1.1209192E0,3.9694629E0,1.4910214E0,1.925375E0,7.240743E1,6.342597E0,1.5073018E0,2.2289112E0,5.1018233E0,1.1055439E0,9.063618E0,1.1659759E0,2.1600414E1,3.6272373E0,7.6201654E2,3.8087457E2,4.4169397E0,6.329796E1,6.380442E0,4.040978E0,5.8597403E0,2.6719337E0],"tree_param":{"num_deleted":"0","num_feature":"24","num_nodes":"55","size_leaf_vector":"1"}},{"base_weights":[-2.5421297E-5,9.752194E-2,-6.479599E-2,2.7719826E-1,-3.2279587E-1,7.815565E-2,5.695063E-1,-5.784997E-1,2.1666314E-1,4.8418185E-1,-1.9590884E-1,9.2044437E-1,-3.3271652E-1,-3.0328694E-1,-5.981513E-1,9.9935755E-3,1.2938751E0,-3.1201398E-1,1.092941E0,-3.3332273E-1,6.3811E-1,1.0952064E0,-4.725207E-1,-4.280835E-1,4.2483675E-1,5.875924E-1,-5.5824804E-1,-6.375519E-2,-4.950822E-1,2.3602667E-1,-6.024896E-1,1.583158E-1,-4.8654553E-2,-5.5878688E-2,1.1254632E-1,1.248179E-1,-2.996521E-2,-6.0970582E-2,2.599959E-3,8.57772E-2,-2.5397018E-2,1.2046713E-1,-2.4125712E-2,-1.3222459E-2,-5.409521E-2,-5.508389E-2,-1.1471117E-2,1.2427471E-2,1.2553857E-1,-3.874546E-2,1.0582558E-1,-1.4968442E-2,-6.0916003E-2,-2.9638235E-2,-6.179288E-2,-8.320241E-3,7.125111E-2,-6.323948E-2,9.2120236E-4],"categories":[],"categories_nodes":[],"categories_segments":[],"categories_sizes":[],"default_left":[0,0,0,0,0,0,0,0,0,0,0,0,0,0,0,0,0,0,0,0,0,0,0,0,0,0,0,0,0,0,0,0,0,0,0,0,0,0,0,0,0,0,0,0,0,0,0,0,0,0,0,0,0,0,0,0,0,0,0],"id":7,"left_children":[1,3,-1,5,7,9,11,13,15,17,19,21,23,25,27,29,31,33,35,37,39,41,43,45,47,49,51,-1,53,55,57,-1,-1,-1,-1,-1,-1,-1,-1,-1,-1,-1,-1,-1,-1,-1,-1,-1,-1,-1,-1,-1,-1,-1,-1,-1,-1,-1,-1],"loss_changes":[1.042469E2,1.08352264E2,0E0,5.8415756E1,5.9406578E1,6.674043E1,1.2913213E2,1.3969116E0,3.0915707E1,1.1746179E2,4.1272995E1,7.189253E1,8.466706E0,5.206511E0,7.863083E-1,1.6418821E1,1.2284332E1,3.804554E1,3.0025864E1,3.0628494E1,1.021607E1,3.8446625E1,7.058511E-1,3.8741035E0,3.1701021E0,2.8268087E0,2.6683474E-1,0E0,1.7578697E0,1.3231237E1,5.907297E-1,0E0,0E0,0E0,0E0,0E0,0E0,0E0,0E0,0E0,0E0,0E0,0E0,0E0,0E0,0E0,0E0,0E0,0E0,0E0,0E0,0E0,0E0,0E0,0E0,0E0,0E0,0E0,0E0],"parents":[2147483647,0,0,1,1,3,3,4,4,5,5,6,6,7,7,8,8,9,9,10,10,11,11,12,12,13,13,14,14,15,15,16,16,17,17,18,18,19,19,20,20,21,21,22,22,23,23,24,24,25,25,26,26,28,28,29,29,30,30],"right_children":[2,4,-1,6,8,10,12,14,16,18,20,22,24,26,28,30,32,34,36,38,40,42,44,46,48,50,52,-1,54,56,58,-1,-1,-1,-1,-1,-1,-1,-1,-1,-1,-1,-1,-1,-1,-1,-1,-1,-1,-1,-1,-1,-1,-1,-1,-1,-1,-1,-1],"split_conditions":[1.01E0,3.0445231E-2,-6.479599E-2,2.9E1,1E0,1.2E1,4.1E1,1E1,7.5695056E2,1E0,1E0,1E0,1E0,9E0,2.9E1,3E0,2.25E2,1E0,1E0,1.4E1,1E0,1E0,1.1E1,5.2E1,1.5E1,1.78E2,2.3219563E1,-6.375519E-2,1.9E1,2.7E1,1.1E2,1.583158E-1,-4.8654553E-2,-5.5878688E-2,1.1254632E-1,1.248179E-1,-2.996521E-2,-6.0970582E-2,2.599959E-3,8.57772E-2,-2.5397018E-2,1.2046713E-1,-2.4125712E-2,-1.3222459E-2,-5.409521E-2,-5.508389E-2,-1.1471117E-2,1.2427471E-2,1.2553857E-1,-3.874546E-2,1.0582558E-1,-1.4968442E-2,-6.0916003E-2,-2.9638235E-2,-6.179288E-2,-8.320241E-3,7.125111E-2,-6.323948E-2,9.2120236E-4],"split_indices":[10,21,0,0,9,0,0,0,21,0,9,6,9,21,0,13,1,9,7,2,7,8,2,0,3,1,21,0,21,0,2,0,0,0,0,0,0,0,0,0,0,0,0,0,0,0,0,0,0,0,0,0,0,0,0,0,0,0,0],"split_type":[0,0,0,0,0,0,0,0,0,0,0,0,0,0,0,0,0,0,0,0,0,0,0,0,0,0,0,0,0,0,0,0,0,0,0,0,0,0,0,0,0,0,0,0,0,0,0,0,0,0,0,0,0,0,0,0,0,0,0],"sum_hessian":[1.6473641E3,1.4325426E3,2.1482161E2,1.0037869E3,4.287556E2,5.9791406E2,4.058729E2,2.9082977E2,1.3792583E2,2.4063982E2,3.5727423E2,2.9219675E2,1.1367612E2,2.0477932E1,2.7035184E2,1.1657039E2,2.1355448E1,1.0447911E2,1.361607E2,3.0725146E2,5.0022762E1,2.5981412E2,3.238263E1,1.0135201E2,1.2324102E1,4.2662525E0,1.621168E1,1.918334E2,7.8518456E1,8.559626E1,3.0974125E1,1.8465904E1,2.8895442E0,8.969276E1,1.4786358E1,1.2259793E2,1.356277E1,1.7327512E2,1.3397635E2,4.0169945E1,9.8528185E0,2.4023589E2,1.9578245E1,5.912603E0,2.6470028E1,7.228032E1,2.9071695E1,9.893454E0,2.4306493E0,1.4464705E0,2.819782E0,2.2329042E0,1.3978775E1,3.1301708E1,4.7216747E1,5.1750492E1,3.3845768E1,2.9498175E1,1.4759496E0],"tree_param":{"num_deleted":"0","num_feature":"24","num_nodes":"59","size_leaf_vector":"1"}},{"base_weights":[5.1094167E-4,-2.994108E-1,7.1716857E-1,-4.8233762E-1,-4.6493705E-2,1.257197E-1,9.79493E-1,-5.153058E-1,8.828841E-1,-4.4214395E-1,1.7165975E-1,7.6920015E-1,-1.7210482E-1,1.1296924E0,-3.0155727E-1,-5.264314E-1,1.099413E-1,1.1121854E0,-4.3835904E-2,-5.279058E-1,5.9059884E-2,4.3308473E-1,-6.3138664E-2,1.1325412E0,-5.8388192E-2,-5.8560455E-1,4.7376E-1,-3.0271173E-1,1.1898094E0,3.2518557E-1,-6.1424714E-2,-5.813006E-1,-2.2172168E-1,1.24560416E-1,-7.863895E-5,-6.246034E-1,-3.573733E-1,9.8314005E-1,-4.9122852E-1,6.728526E-1,3.854815E-2,1.3126277E0,-5.002066E-2,5.2859742E-2,-6.1576437E-2,7.495476E-1,-5.858593E-2,9.319145E-2,-5.167165E-1,1.3242697E0,7.067582E-1,-1.9558932E-1,9.591683E-1,-5.2878637E-2,-6.3681446E-2,8.981164E-3,-5.561308E-2,-6.350162E-2,1.9315652E-3,1.5760336E-2,-5.429522E-2,1.19445615E-1,-3.581511E-2,-2.1507438E-2,-5.8472414E-2,6.371898E-3,8.09627E-2,-6.452304E-2,9.364381E-2,1.3709031E-1,2.2838503E-2,1.05094455E-1,-8.2357E-3,1.3095083E-2,-5.9696298E-2,1.3463593E-1,-2.4235746E-2,2.2045275E-2,1.2062738E-1,-5.500667E-2,6.981247E-2,1.2497133E-1,2.395094E-2],"categories":[],"categories_nodes":[],"categories_segments":[],"categories_sizes":[],"default_left":[0,0,0,0,0,0,0,0,0,0,0,0,0,0,0,0,0,0,0,0,0,0,0,0,0,0,0,0,0,0,0,0,0,0,0,0,0,0,0,0,0,0,0,0,0,0,0,0,0,0,0,0,0,0,0,0,0,0,0,0,0,0,0,0,0,0,0,0,0,0,0,0,0,0,0,0,0,0,0,0,0,0,0],"id":8,"left_children":[1,3,5,7,9,11,13,15,17,19,21,23,25,27,29,31,-1,33,-1,35,37,39,-1,41,-1,43,45,47,49,51,-1,53,55,-1,-1,57,59,61,63,65,67,69,-1,-1,-1,71,-1,-1,73,75,77,79,81,-1,-1,-1,-1,-1,-1,-1,-1,-1,-1,-1,-1,-1,-1,-1,-1,-1,-1,-1,-1,-1,-1,-1,-1,-1,-1,-1,-1,-1,-1],"loss_changes":[3.5152438E2,5.331871E1,7.47383E1,3.056305E1,4.1937782E1,2.8763758E1,6.46272E1,1.2323944E1,5.377817E0,7.4526596E0,6.605655E1,2.399003E1,2.7770893E1,2.612967E1,7.2257695E0,1.0738541E1,0E0,2.0853786E0,0E0,2.2095566E0,1.3768422E1,2.2392212E1,0E0,1.1755604E1,0E0,2.4496365E0,1.234334E1,3.8769374E0,1.7731323E1,4.3433504E0,0E0,1.2672272E0,1.0551411E1,0E0,0E0,6.345482E-1,5.4107766E0,3.2860985E0,3.1424665E-1,1.222422E1,5.625431E1,1.8524513E0,0E0,0E0,0E0,8.301025E0,0E0,0E0,6.808381E-1,8.066956E0,1.5457016E1,2.8364077E0,9.230161E-1,0E0,0E0,0E0,0E0,0E0,0E0,0E0,0E0,0E0,0E0,0E0,0E0,0E0,0E0,0E0,0E0,0E0,0E0,0E0,0E0,0E0,0E0,0E0,0E0,0E0,0E0,0E0,0E0,0E0,0E0],"parents":[2147483647,0,0,1,1,2,2,3,3,4,4,5,5,6,6,7,7,8,8,9,9,10,10,11,11,12,12,13,13,14,14,15,15,17,17,19,19,20,20,21,21,23,23,25,25,26,26,27,27,28,28,29,29,31,31,32,32,35,35,36,36,37,37,38,38,39,39,40,40,41,41,45,45,48,48,49,49,50,50,51,51,52,52],"right_children":[2,4,6,8,10,12,14,16,18,20,22,24,26,28,30,32,-1,34,-1,36,38,40,-1,42,-1,44,46,48,50,52,-1,54,56,-1,-1,58,60,62,64,66,68,70,-1,-1,-1,72,-1,-1,74,76,78,80,82,-1,-1,-1,-1,-1,-1,-1,-1,-1,-1,-1,-1,-1,-1,-1,-1,-1,-1,-1,-1,-1,-1,-1,-1,-1,-1,-1,-1,-1,-1],"split_conditions":[3.0445231E-2,2.9E1,2E0,1E0,1.19E2,2.4E1,1E0,1E0,4.65E2,5.5E1,1.01E0,1E0,2.7E1,9E0,4E0,1E0,1.099413E-1,1E0,-4.3835904E-2,9.2E1,6.6E1,1E0,-6.3138664E-2,6E0,-5.8388192E-2,1.9E0,8E0,9.8E1,1E0,2.7227962E1,-6.1424714E-2,1E0,8E0,1.24560416E-1,-7.863895E-5,7E0,5E0,1E0,1.01E0,3.1E1,1E0,1E0,-5.002066E-2,5.2859742E-2,-6.1576437E-2,1E0,-5.858593E-2,9.319145E-2,2.8041801E0,6.2E1,2.82E2,1E0,3E0,-5.2878637E-2,-6.3681446E-2,8.981164E-3,-5.561308E-2,-6.350162E-2,1.9315652E-3,1.5760336E-2,-5.429522E-2,1.19445615E-1,-3.581511E-2,-2.1507438E-2,-5.8472414E-2,6.371898E-3,8.09627E-2,-6.452304E-2,9.364381E-2,1.3709031E-1,2.2838503E-2,1.05094455E-1,-8.2357E-3,1.3095083E-2,-5.9696298E-2,1.3463593E-1,-2.4235746E-2,2.2045275E-2,1.2062738E-1,-5.500667E-2,6.981247E-2,1.2497133E-1,2.395094E-2],"split_indices":[21,0,3,17,1,0,8,19,1,0,10,8,0,0,14,8,0,9,0,1,0,5,0,20,0,21,12,1,9,21,0,4,0,0,0,2,2,5,10,0,6,4,0,0,0,15,0,0,21,0,1,13,20,0,0,0,0,0,0,0,0,0,0,0,0,0,0,0,0,0,0,0,0,0,0,0,0,0,0,0,0,0,0],"split_type":[0,0,0,0,0,0,0,0,0,0,0,0,0,0,0,0,0,0,0,0,0,0,0,0,0,0,0,0,0,0,0,0,0,0,0,0,0,0,0,0,0,0,0,0,0,0,0,0,0,0,0,0,0,0,0,0,0,0,0,0,0,0,0,0,0,0,0,0,0,0,0,0,0,0,0,0,0,0,0,0,0,0,0],"sum_hessian":[1.6334454E3,1.15194E3,4.8150552E2,6.679361E2,4.8400388E2,1.4839856E2,3.3310696E2,6.5279456E2,1.5141532E1,1.7165605E2,3.123478E2,4.6451843E1,1.0194671E2,2.9825552E2,3.4851425E1,6.489969E2,3.7976646E0,1.3037165E1,2.104367E0,1.465298E2,2.5126251E1,2.3598543E2,7.636237E1,3.6747173E1,9.704671E0,6.221093E1,3.9735783E1,1.18508625E1,2.8640466E2,1.1586984E1,2.3264439E1,5.491953E2,9.980157E1,1.1535199E1,1.5019656E0,9.1808624E1,5.472118E1,9.084455E0,1.6041798E1,1.4634389E2,8.9641556E1,3.3273304E1,3.473868E0,1.2040169E0,6.1006912E1,3.176176E1,7.9740214E0,1.2551374E0,1.0595725E1,2.2267914E2,6.3725525E1,6.7411036E0,4.84588E0,2.8763126E2,2.6156406E2,5.2046665E1,4.7754898E1,9.036122E1,1.4474022E0,1.45357065E1,4.018547E1,7.942597E0,1.1418574E0,4.8922195E0,1.1149578E1,2.710334E1,1.1924054E2,5.104793E1,3.8593624E1,3.132526E1,1.948046E0,2.3121572E1,8.640188E0,1.0984349E0,9.49729E0,2.1972165E2,2.9574986E0,3.3020054E1,3.0705471E1,5.101995E0,1.6391088E0,2.927455E0,1.918425E0],"tree_param":{"num_deleted":"0","num_feature":"24","num_nodes":"83","size_leaf_vector":"1"}},{"base_weights":[2.691618E-4,6.4382344E-1,-2.3872897E-1,8.70368E-1,9.47455E-2,-1.6525155E-1,-6.3343234E-2,1.0336927E0,1.9546194E-2,-3.667076E-1,3.9491814E-1,-5.814969E-3,-4.024307E-1,3.4901685E-1,1.1452112E0,-5.041491E-1,9.350461E-1,-4.6815875E-1,1.107524E-1,1.2697297E0,-4.3981513E-1,-3.939701E-1,2.2468145E-1,-4.5882052E-1,5.718178E-1,5.4530543E-4,1.3520883E-1,1.1834601E0,-3.8480216E-1,-5.5914915E-1,5.3163867E-2,-3.8406506E-2,1.0635635E0,4.9361116E-1,-5.412818E-1,1.3338853E0,3.0438796E-1,-4.5777836E-1,9.881323E-3,-4.5796397E-1,4.2090565E-1,5.206045E-1,-4.240921E-1,-5.9411335E-1,-1.4982711E-1,7.8520995E-1,-4.9273398E-2,3.306322E-2,-4.4842195E-2,1.1980158E-1,-4.4736993E-2,-5.2253198E-2,1.4814367E-2,-6.154249E-2,-2.3173427E-2,6.0078897E-2,1.3267848E-1,-3.748283E-2,1.0982307E-1,-5.5913907E-2,-1.0186404E-3,1.4037262E-1,6.8978526E-2,8.960778E-3,3.682416E-2,-5.406772E-2,-3.1190861E-2,-2.907922E-2,-6.0908157E-2,9.767315E-3,1.1135399E-1,7.399502E-2,-5.8586456E-2,-5.1486947E-2,1.1529869E-1,-6.060802E-2,-4.6422042E-2,1.0316459E-1,-3.5974298E-2,4.5803767E-2,1.2363632E-1],"categories":[],"categories_nodes":[],"categories_segments":[],"categories_sizes":[],"default_left":[0,0,0,0,0,0,0,0,0,0,0,0,0,0,0,0,0,0,0,0,0,0,0,0,0,0,0,0,0,0,0,0,0,0,0,0,0,0,0,0,0,0,0,0,0,0,0,0,0,0,0,0,0,0,0,0,0,0,0,0,0,0,0,0,0,0,0,0,0,0,0,0,0,0,0,0,0,0,0,0,0],"id":9,"left_children":[1,3,5,7,9,11,-1,13,15,17,19,21,23,25,27,29,31,33,-1,35,37,39,41,43,45,47,-1,49,51,53,-1,-1,55,57,59,61,63,65,-1,67,69,71,73,75,77,79,-1,-1,-1,-1,-1,-1,-1,-1,-1,-1,-1,-1,-1,-1,-1,-1,-1,-1,-1,-1,-1,-1,-1,-1,-1,-1,-1,-1,-1,-1,-1,-1,-1,-1,-1],"loss_changes":[2.5166379E2,5.5034134E1,3.449807E1,4.3551056E1,1.8226807E1,3.8085953E1,0E0,1.9684113E1,2.517024E1,8.290889E0,5.866584E1,5.4068665E1,2.25057E1,1.3379851E1,1.3666962E1,2.2011385E0,3.6457748E0,3.7360506E0,0E0,2.0162277E0,4.4640255E-1,1.1933994E1,7.301983E1,1.5934067E1,5.5203595E0,4.506898E0,0E0,5.7700195E0,5.369589E-1,4.5109272E-1,0E0,0E0,1.3548012E0,2.5162444E0,4.335661E-1,6.6819763E-1,1.819864E-2,3.1870365E-1,0E0,5.108841E0,3.6783247E0,6.374331E1,1.7677319E1,1.3246918E-1,2.9649725E1,2.2691765E0,0E0,0E0,0E0,0E0,0E0,0E0,0E0,0E0,0E0,0E0,0E0,0E0,0E0,0E0,0E0,0E0,0E0,0E0,0E0,0E0,0E0,0E0,0E0,0E0,0E0,0E0,0E0,0E0,0E0,0E0,0E0,0E0,0E0,0E0,0E0],"parents":[2147483647,0,0,1,1,2,2,3,3,4,4,5,5,7,7,8,8,9,9,10,10,11,11,12,12,13,13,14,14,15,15,16,16,17,17,19,19,20,20,21,21,22,22,23,23,24,24,25,25,27,27,28,28,29,29,32,32,33,33,34,34,35,35,36,36,37,37,39,39,40,40,41,41,42,42,43,43,44,44,45,45],"right_children":[2,4,6,8,10,12,-1,14,16,18,20,22,24,26,28,30,32,34,-1,36,38,40,42,44,46,48,-1,50,52,54,-1,-1,56,58,60,62,64,66,-1,68,70,72,74,76,78,80,-1,-1,-1,-1,-1,-1,-1,-1,-1,-1,-1,-1,-1,-1,-1,-1,-1,-1,-1,-1,-1,-1,-1,-1,-1,-1,-1,-1,-1,-1,-1,-1,-1,-1,-1],"split_conditions":[8.9E1,2.7E1,1.01E0,1E0,4.1E1,2.7E1,-6.3343234E-2,1.2E1,8.55E0,3E0,5.2E1,1.2E1,1E0,7E0,1.2191361E2,2.2E1,1.8E1,3.8E1,1.107524E-1,7.7E1,8.3E1,5.5E1,1E0,4.1E1,3.0445231E-2,4E0,1.3520883E-1,1.01E0,1E0,5E1,5.3163867E-2,-3.8406506E-2,2E0,3.4E1,1E0,1E0,5E0,6.6E1,9.881323E-3,4E0,5.85E2,1E0,2.5E1,1E0,4.2E1,1E0,-4.9273398E-2,3.306322E-2,-4.4842195E-2,1.1980158E-1,-4.4736993E-2,-5.2253198E-2,1.4814367E-2,-6.154249E-2,-2.3173427E-2,6.0078897E-2,1.3267848E-1,-3.748283E-2,1.0982307E-1,-5.5913907E-2,-1.0186404E-3,1.4037262E-1,6.8978526E-2,8.960778E-3,3.682416E-2,-5.406772E-2,-3.1190861E-2,-2.907922E-2,-6.0908157E-2,9.767315E-3,1.1135399E-1,7.399502E-2,-5.8586456E-2,-5.1486947E-2,1.1529869E-1,-6.060802E-2,-4.6422042E-2,1.0316459E-1,-3.5974298E-2,4.5803767E-2,1.2363632E-1],"split_indices":[1,0,10,17,0,0,0,0,21,13,0,0,4,2,21,0,1,1,0,1,1,3,19,0,21,0,0,10,22,1,0,0,20,0,6,9,2,0,0,0,2,9,16,6,0,5,0,0,0,0,0,0,0,0,0,0,0,0,0,0,0,0,0,0,0,0,0,0,0,0,0,0,0,0,0,0,0,0,0,0,0],"split_type":[0,0,0,0,0,0,0,0,0,0,0,0,0,0,0,0,0,0,0,0,0,0,0,0,0,0,0,0,0,0,0,0,0,0,0,0,0,0,0,0,0,0,0,0,0,0,0,0,0,0,0,0,0,0,0,0,0,0,0,0,0,0,0,0,0,0,0,0,0,0,0,0,0,0,0,0,0,0,0,0,0],"sum_hessian":[1.6342181E3,4.42093E2,1.1921251E3,3.1255185E2,1.2954115E2,1.0062262E3,1.8589894E2,2.6203613E2,5.0515694E1,5.096752E1,7.857363E1,6.023434E2,4.038828E2,3.7280365E1,2.2475578E2,3.241983E1,1.8095865E1,4.832445E1,2.643071E0,3.8111332E1,4.0462303E1,2.241561E2,3.781873E2,3.8228506E2,2.1597738E1,2.841085E1,8.869514E0,2.1949512E2,5.2606707E0,3.1222115E1,1.1977156E0,1.429984E0,1.666588E1,3.0081782E0,4.5316273E1,3.537835E1,2.7329836E0,3.9301697E1,1.1606044E0,2.0824052E2,1.5915563E1,2.5985706E2,1.1833023E2,2.6523093E2,1.1705414E2,1.8209915E1,3.387822E0,1.652501E1,1.1885841E1,2.1781642E2,1.6786878E0,4.1958675E0,1.0648031E0,2.589215E1,5.3299637E0,7.2325816E0,9.433299E0,1.3907079E0,1.6174705E0,4.3791058E1,1.5252124E0,3.0853489E1,4.524859E0,1.1770729E0,1.5559108E0,2.3334156E1,1.5967542E1,1.0025693E2,1.07983604E2,1.162945E1,4.286113E0,2.1714218E2,4.2714867E1,1.1252667E2,5.803553E0,2.3950018E2,2.5730759E1,1.7069124E1,9.9985016E1,1.172344E1,6.486475E0],"tree_param":{"num_deleted":"0","num_feature":"24","num_nodes":"81","size_leaf_vector":"1"}},{"base_weights":[-6.710403E-4,-2.8852654E-1,1.4150526E-1,8.070462E-1,-4.0289077E-1,1.260341E-1,9.570127E-1,-4.2301103E-1,4.793745E-1,9.1168416E-1,-4.1497934E-1,1.1197746E0,6.427401E-2,-4.5668826E-1,7.619916E-2,-2.1338193E-1,9.811475E-1,1.2268477E-1,5.195182E-1,-6.0269024E-2,-5.122109E-2,1.1736429E0,-9.64057E-2,7.4557954E-1,-4.0630615E-1,3.2064515E-1,-4.7506645E-1,-9.681826E-2,1.3039677E-1,-3.3913544E-1,5.317827E-2,6.0851127E-1,1.3312845E-1,-3.51758E-2,7.759114E-2,-3.88516E-2,2.3435205E-2,1.2177336E-1,5.650371E-2,-4.5037728E-2,3.8841058E-2,9.850275E-2,-3.4062702E-2,-5.7869326E-2,5.4730058E-2,1.4564934E-2,1.07835375E-1,-4.1593686E-2,-5.939212E-2,1.1492081E-1,-2.0729195E-2,-1.7052686E-2,-5.2186735E-2,8.178638E-2,4.4925627E-3],"categories":[],"categories_nodes":[],"categories_segments":[],"categories_sizes":[],"default_left":[0,0,0,0,0,0,0,0,0,0,0,0,0,0,0,0,0,0,0,0,0,0,0,0,0,0,0,0,0,0,0,0,0,0,0,0,0,0,0,0,0,0,0,0,0,0,0,0,0,0,0,0,0,0,0],"id":10,"left_children":[1,3,-1,5,7,9,11,13,15,17,19,21,23,25,27,29,31,-1,33,35,-1,37,39,41,43,45,47,49,-1,51,-1,53,-1,-1,-1,-1,-1,-1,-1,-1,-1,-1,-1,-1,-1,-1,-1,-1,-1,-1,-1,-1,-1,-1,-1],"loss_changes":[6.658842E2,1.704598E2,0E0,1.3021439E1,2.2040527E1,1.0738723E1,1.5229416E1,2.0264694E1,9.906948E0,6.29838E-1,4.90669E-1,5.94429E0,5.8492994E0,1.6258331E1,1.6462341E1,1.3554568E0,1.3241796E0,0E0,1.6809108E0,5.1528114E-1,0E0,1.6010742E0,9.813755E-1,2.265418E0,2.105176E0,3.3747697E0,7.4959717E0,9.6447525E0,0E0,2.6039946E-1,0E0,1.1155612E0,0E0,0E0,0E0,0E0,0E0,0E0,0E0,0E0,0E0,0E0,0E0,0E0,0E0,0E0,0E0,0E0,0E0,0E0,0E0,0E0,0E0,0E0,0E0],"parents":[2147483647,0,0,1,1,3,3,4,4,5,5,6,6,7,7,8,8,9,9,10,10,11,11,12,12,13,13,14,14,15,15,16,16,18,18,19,19,21,21,22,22,23,23,24,24,25,25,26,26,27,27,29,29,31,31],"right_children":[2,4,-1,6,8,10,12,14,16,18,20,22,24,26,28,30,32,-1,34,36,-1,38,40,42,44,46,48,50,-1,52,-1,54,-1,-1,-1,-1,-1,-1,-1,-1,-1,-1,-1,-1,-1,-1,-1,-1,-1,-1,-1,-1,-1,-1,-1],"split_conditions":[1.01E0,1E0,1.4150526E-1,1.19E2,6.5E1,6E0,1E0,1E0,1E0,2E0,7E0,3.36E2,5E0,8E0,4.19E2,3.23E2,2E0,1.2268477E-1,6.1E1,6.9E1,-5.122109E-2,1E0,1.8292E4,1.7E1,3.649E3,1.6777779E1,3.0445231E-2,6E0,1.3039677E-1,5E0,5.317827E-2,1E0,1.3312845E-1,-3.51758E-2,7.759114E-2,-3.88516E-2,2.3435205E-2,1.2177336E-1,5.650371E-2,-4.5037728E-2,3.8841058E-2,9.850275E-2,-3.4062702E-2,-5.7869326E-2,5.4730058E-2,1.4564934E-2,1.07835375E-1,-4.1593686E-2,-5.939212E-2,1.1492081E-1,-2.0729195E-2,-1.7052686E-2,-5.2186735E-2,8.178638E-2,4.4925627E-3],"split_indices":[10,0,0,1,0,2,9,7,16,3,2,2,3,1,21,1,13,0,1,1,0,7,1,2,1,21,21,2,0,2,0,20,0,0,0,0,0,0,0,0,0,0,0,0,0,0,0,0,0,0,0,0,0,0,0],"split_type":[0,0,0,0,0,0,0,0,0,0,0,0,0,0,0,0,0,0,0,0,0,0,0,0,0,0,0,0,0,0,0,0,0,0,0,0,0,0,0,0,0,0,0,0,0,0,0,0,0,0,0,0,0,0,0],"sum_hessian":[1.6319745E3,1.3568798E3,2.7509476E2,1.27680885E2,1.2291989E3,2.3374685E1,1.043062E2,1.2023007E3,2.6898186E1,9.252797E0,1.4121888E1,8.800672E1,1.6299479E1,1.126398E3,7.5902756E1,1.1540256E1,1.535793E1,3.949998E0,5.302799E0,3.3867059E0,1.0735182E1,8.430747E1,3.699253E0,6.4200916E0,9.879387E0,2.5636068E1,1.1007618E3,6.733503E1,8.567726E0,1.0340144E1,1.2001109E0,8.766273E0,6.591658E0,1.1211059E0,4.181693E0,1.4511902E0,1.9355155E0,7.767911E1,6.6283607E0,2.1792128E0,1.5200403E0,5.3367786E0,1.0833129E0,8.699838E0,1.1795495E0,2.1794716E1,3.8413525E0,7.380736E2,3.6268823E2,4.718035E0,6.2616997E1,6.3833604E0,3.956784E0,6.0629263E0,2.7033458E0],"tree_param":{"num_deleted":"0","num_feature":"24","num_nodes":"55","size_leaf_vector":"1"}},{"base_weights":[-1.0962294E-4,9.01461E-2,-6.3355245E-2,2.5311843E-1,-3.077148E-1,7.0108E-2,5.145717E-1,-5.6253207E-1,2.0070578E-1,4.3922156E-1,-1.8823762E-1,8.186107E-1,-3.2174557E-1,-4.49481E-1,-6.1448146E-2,-4.2306837E-1,4.9048397E-1,-2.9737502E-1,9.549641E-1,-3.2002404E-1,5.601982E-1,1.1538475E0,2.4651334E-1,-4.1580415E-1,3.9145425E-1,4.0145E-1,-5.046525E-1,-5.2581E-1,1.1445632E-1,1.7127997E-1,1.1486912E0,-5.4339707E-2,1.00741915E-1,1.0855472E-1,-2.9809853E-2,-5.9620123E-2,2.286644E-3,7.491028E-2,-2.5146658E-2,1.19401015E-1,-1.2110245E-2,6.905051E-2,-2.6365703E-2,2.206332E-2,-4.7067676E-2,1.1042582E-2,1.1455611E-1,-4.4412192E-2,9.672053E-2,-5.6442957E-2,-5.4179803E-3,-5.68684E-2,5.1462997E-2,-2.1103462E-2,7.882636E-2,1.3335966E-1,-4.8877064E-2],"categories":[],"categories_nodes":[],"categories_segments":[],"categories_sizes":[],"default_left":[0,0,0,0,0,0,0,0,0,0,0,0,0,0,0,0,0,0,0,0,0,0,0,0,0,0,0,0,0,0,0,0,0,0,0,0,0,0,0,0,0,0,0,0,0,0,0,0,0,0,0,0,0,0,0,0,0],"id":11,"left_children":[1,3,-1,5,7,9,11,13,15,17,19,21,23,25,-1,27,29,31,33,35,37,39,41,43,45,47,49,51,-1,53,55,-1,-1,-1,-1,-1,-1,-1,-1,-1,-1,-1,-1,-1,-1,-1,-1,-1,-1,-1,-1,-1,-1,-1,-1,-1,-1],"loss_changes":[9.3646805E1,9.304001E1,0E0,4.8656487E1,5.414641E1,5.727669E1,1.0676812E2,1.3570023E0,2.551015E1,9.421198E1,3.5049126E1,5.8683975E1,7.7023897E0,4.4878826E0,0E0,7.8397684E0,1.9982128E1,3.3478027E1,2.4158218E1,2.8540152E1,8.359756E0,1.0057678E1,2.620204E1,3.5885487E0,2.7579532E0,3.354806E0,2.289648E0,2.204566E0,0E0,1.5699745E1,1.009557E1,0E0,0E0,0E0,0E0,0E0,0E0,0E0,0E0,0E0,0E0,0E0,0E0,0E0,0E0,0E0,0E0,0E0,0E0,0E0,0E0,0E0,0E0,0E0,0E0,0E0,0E0],"parents":[2147483647,0,0,1,1,3,3,4,4,5,5,6,6,7,7,8,8,9,9,10,10,11,11,12,12,13,13,15,15,16,16,17,17,18,18,19,19,20,20,21,21,22,22,23,23,24,24,25,25,26,26,27,27,29,29,30,30],"right_children":[2,4,-1,6,8,10,12,14,16,18,20,22,24,26,-1,28,30,32,34,36,38,40,42,44,46,48,50,52,-1,54,56,-1,-1,-1,-1,-1,-1,-1,-1,-1,-1,-1,-1,-1,-1,-1,-1,-1,-1,-1,-1,-1,-1,-1,-1,-1,-1],"split_conditions":[1.01E0,3.0445231E-2,-6.3355245E-2,2.9E1,1E0,1.2E1,4.1E1,1.3125388E1,2E0,1E0,1E0,1.2E1,1E0,1E1,-6.1448146E-2,8E0,1E0,1E0,1E0,1.4E1,1E0,1E0,3E1,1E0,1.5E1,1.88E2,4.4E1,1.8E1,1.1445632E-1,2.9E1,5E0,-5.4339707E-2,1.00741915E-1,1.0855472E-1,-2.9809853E-2,-5.9620123E-2,2.286644E-3,7.491028E-2,-2.5146658E-2,1.19401015E-1,-1.2110245E-2,6.905051E-2,-2.6365703E-2,2.206332E-2,-4.7067676E-2,1.1042582E-2,1.1455611E-1,-4.4412192E-2,9.672053E-2,-5.6442957E-2,-5.4179803E-3,-5.68684E-2,5.1462997E-2,-2.1103462E-2,7.882636E-2,1.3335966E-1,-4.8877064E-2],"split_indices":[10,21,0,0,9,0,0,21,3,0,9,2,9,0,0,15,8,9,7,2,7,6,0,3,3,1,0,2,0,0,16,0,0,0,0,0,0,0,0,0,0,0,0,0,0,0,0,0,0,0,0,0,0,0,0,0,0],"split_type":[0,0,0,0,0,0,0,0,0,0,0,0,0,0,0,0,0,0,0,0,0,0,0,0,0,0,0,0,0,0,0,0,0,0,0,0,0,0,0,0,0,0,0,0,0,0,0,0,0,0,0,0,0,0,0,0,0],"sum_hessian":[1.6359894E3,1.4327085E3,2.0328093E2,1.0166363E3,4.1607217E2,5.9877655E2,4.178597E2,2.7708997E2,1.3898221E2,2.4624777E2,3.525288E2,3.0646652E2,1.11393196E2,9.027907E1,1.868109E2,4.393916E1,9.504305E1,1.0158496E2,1.4466281E2,3.0023508E2,5.2293724E1,1.9259381E2,1.1387271E2,9.87825E1,1.2610692E1,5.1148205E0,8.5164246E1,4.186025E1,2.0789118E0,6.485245E1,3.0190603E1,8.596045E1,1.5624509E1,1.3113116E2,1.3531647E1,1.6588565E2,1.3434943E2,4.2483345E1,9.810379E0,1.8677367E2,5.820152E0,6.069634E1,5.317637E1,7.601065E0,9.1181435E1,1.0022209E1,2.588483E0,2.1365492E0,2.9782715E0,7.496369E1,1.020055E1,4.063903E1,1.2212168E0,4.044723E1,2.4405216E1,2.7294075E1,2.8965287E0],"tree_param":{"num_deleted":"0","num_feature":"24","num_nodes":"57","size_leaf_vector":"1"}},{"base_weights":[7.188019E-4,-2.858911E-1,6.5212333E-1,-4.6754384E-1,-4.1557685E-2,1.15221806E-1,8.8117385E-1,-5.0070137E-1,8.1447726E-1,-4.2582074E-1,1.6241835E-1,7.006466E-1,-1.6677369E-1,1.0080462E0,-2.8583968E-1,-5.1197326E-1,1.0182201E-1,1.0170896E0,-4.275369E-2,-5.117602E-1,5.810653E-2,3.9791572E-1,-6.1814886E-2,1.0175788E0,-5.7305533E-2,-5.73089E-1,4.2724678E-1,-2.949167E-1,1.0595132E0,3.126462E-1,-6.01162E-2,-5.680637E-1,-2.0819008E-1,1.1339172E0,-2.8192202E-5,-6.104825E-1,-3.4114385E-1,8.738578E-1,-4.760852E-1,6.071E-1,3.8321048E-2,1.1706285E0,-4.8735898E-2,5.029429E-2,-6.040141E-2,6.710786E-1,-5.749483E-2,8.805396E-2,-5.079274E-1,1.173977E0,6.408467E-1,-1.8238188E-1,8.8204217E-1,-5.150048E-2,-6.249186E-2,1.8210785E-2,-4.805944E-2,1.21158026E-1,4.902074E-2,-6.212082E-2,2.3228207E-3,1.586928E-2,-5.2818533E-2,1.0596036E-1,-3.583299E-2,-2.1067252E-2,-5.6982663E-2,5.486403E-3,7.2680175E-2,-6.339198E-2,8.598851E-2,1.2095499E-1,4.777883E-3,9.371974E-2,-9.052379E-3,1.2869293E-2,-5.8898367E-2,1.1952988E-1,-1.0931455E-2,1.9891983E-2,1.0818423E-1,-5.38327E-2,6.777964E-2,1.0673684E-1,7.065718E-3],"categories":[],"categories_nodes":[],"categories_segments":[],"categories_sizes":[],"default_left":[0,0,0,0,0,0,0,0,0,0,0,0,0,0,0,0,0,0,0,0,0,0,0,0,0,0,0,0,0,0,0,0,0,0,0,0,0,0,0,0,0,0,0,0,0,0,0,0,0,0,0,0,0,0,0,0,0,0,0,0,0,0,0,0,0,0,0,0,0,0,0,0,0,0,0,0,0,0,0,0,0,0,0,0,0],"id":12,"left_children":[1,3,5,7,9,11,13,15,17,19,21,23,25,27,29,31,-1,33,-1,35,37,39,-1,41,-1,43,45,47,49,51,-1,53,55,57,-1,59,61,63,65,67,69,71,-1,-1,-1,73,-1,-1,75,77,79,81,83,-1,-1,-1,-1,-1,-1,-1,-1,-1,-1,-1,-1,-1,-1,-1,-1,-1,-1,-1,-1,-1,-1,-1,-1,-1,-1,-1,-1,-1,-1,-1,-1],"loss_changes":[3.016728E2,4.9784203E1,6.0614197E1,2.776271E1,3.7660294E1,2.468031E1,5.1506165E1,1.127182E1,4.61335E0,6.957552E0,5.796925E1,2.0187183E1,2.4676998E1,2.1250183E1,6.73615E0,1.0513412E1,0E0,1.7322721E0,0E0,2.176136E0,1.1754428E1,1.8168716E1,0E0,9.610455E0,0E0,2.3182697E0,1.0573314E1,3.6137404E0,1.3651947E1,3.7211695E0,0E0,1.2652893E0,1.0594809E1,5.952835E-2,0E0,6.1532974E-1,5.1466603E0,2.8169432E0,2.8725338E-1,1.0062897E1,5.0258118E1,1.5119514E0,0E0,0E0,0E0,6.974348E0,0E0,0E0,6.609924E-1,6.5564575E0,1.2790937E1,2.687368E0,8.336749E-1,0E0,0E0,0E0,0E0,0E0,0E0,0E0,0E0,0E0,0E0,0E0,0E0,0E0,0E0,0E0,0E0,0E0,0E0,0E0,0E0,0E0,0E0,0E0,0E0,0E0,0E0,0E0,0E0,0E0,0E0,0E0,0E0],"parents":[2147483647,0,0,1,1,2,2,3,3,4,4,5,5,6,6,7,7,8,8,9,9,10,10,11,11,12,12,13,13,14,14,15,15,17,17,19,19,20,20,21,21,23,23,25,25,26,26,27,27,28,28,29,29,31,31,32,32,33,33,35,35,36,36,37,37,38,38,39,39,40,40,41,41,45,45,48,48,49,49,50,50,51,51,52,52],"right_children":[2,4,6,8,10,12,14,16,18,20,22,24,26,28,30,32,-1,34,-1,36,38,40,-1,42,-1,44,46,48,50,52,-1,54,56,58,-1,60,62,64,66,68,70,72,-1,-1,-1,74,-1,-1,76,78,80,82,84,-1,-1,-1,-1,-1,-1,-1,-1,-1,-1,-1,-1,-1,-1,-1,-1,-1,-1,-1,-1,-1,-1,-1,-1,-1,-1,-1,-1,-1,-1,-1,-1],"split_conditions":[3.0445231E-2,2.9E1,2E0,1E0,1.19E2,2.4E1,1E0,1E0,4.65E2,5.5E1,1.01E0,1E0,2.7E1,9E0,4E0,1E0,1.0182201E-1,1E0,-4.275369E-2,9.2E1,6.6E1,1E0,-6.1814886E-2,6E0,-5.7305533E-2,1.9E0,8E0,9.8E1,1E0,2.7227962E1,-6.01162E-2,1E0,1.3E1,7E0,-2.8192202E-5,7E0,5E0,1E0,1.01E0,3.1E1,1E0,2.99E2,-4.8735898E-2,5.029429E-2,-6.040141E-2,1E0,-5.749483E-2,8.805396E-2,2.8041801E0,6.1E1,2.82E2,2.4E1,1E0,-5.150048E-2,-6.249186E-2,1.8210785E-2,-4.805944E-2,1.21158026E-1,4.902074E-2,-6.212082E-2,2.3228207E-3,1.586928E-2,-5.2818533E-2,1.0596036E-1,-3.583299E-2,-2.1067252E-2,-5.6982663E-2,5.486403E-3,7.2680175E-2,-6.339198E-2,8.598851E-2,1.2095499E-1,4.777883E-3,9.371974E-2,-9.052379E-3,1.2869293E-2,-5.8898367E-2,1.1952988E-1,-1.0931455E-2,1.9891983E-2,1.0818423E-1,-5.38327E-2,6.777964E-2,1.0673684E-1,7.065718E-3],"split_indices":[21,0,3,17,1,0,8,19,1,0,10,8,0,0,14,8,0,9,0,1,0,5,0,20,0,21,12,1,9,21,0,4,2,17,0,2,2,5,10,0,6,1,0,0,0,15,0,0,21,0,1,0,23,0,0,0,0,0,0,0,0,0,0,0,0,0,0,0,0,0,0,0,0,0,0,0,0,0,0,0,0,0,0,0,0],"split_type":[0,0,0,0,0,0,0,0,0,0,0,0,0,0,0,0,0,0,0,0,0,0,0,0,0,0,0,0,0,0,0,0,0,0,0,0,0,0,0,0,0,0,0,0,0,0,0,0,0,0,0,0,0,0,0,0,0,0,0,0,0,0,0,0,0,0,0,0,0,0,0,0,0,0,0,0,0,0,0,0,0,0,0,0,0],"sum_hessian":[1.613826E3,1.1211118E3,4.9271417E2,6.4251355E2,4.785983E2,1.4779086E2,3.449233E2,6.2690894E2,1.5604614E1,1.655802E2,3.130181E2,4.756369E1,1.0022717E2,3.112246E2,3.36987E1,6.22949E2,3.9599586E0,1.3571728E1,2.032887E0,1.4056082E2,2.501937E1,2.4084526E2,7.217286E1,3.8247692E1,9.315999E0,5.9537933E1,4.068924E1,1.1646496E1,2.995781E2,1.1631138E1,2.206756E1,5.2512085E2,9.7828094E1,1.2071023E1,1.5007048E0,8.74071E1,5.3153725E1,9.648907E0,1.5370462E1,1.5183255E2,8.90127E1,3.491866E1,3.3290296E0,1.2369015E0,5.830103E1,3.2992603E1,7.696636E0,1.3059727E0,1.0340524E1,2.3384157E2,6.573654E1,6.5854745E0,5.045664E0,2.7683102E2,2.4828983E2,4.0348576E1,5.7479523E1,9.984246E0,2.0867767E0,8.597173E1,1.4353662E0,1.4515384E1,3.8638344E1,8.506639E0,1.1422681E0,4.859371E0,1.0511091E1,2.7307865E1,1.2452469E2,4.908089E1,3.9931812E1,3.36742E1,1.2444618E0,2.427862E1,8.713983E0,1.1015086E0,9.239015E0,2.3008725E2,3.7543077E0,3.3558372E1,3.2178173E1,4.9226365E0,1.662838E0,3.8506565E0,1.1950071E0],"tree_param":{"num_deleted":"0","num_feature":"24","num_nodes":"85","size_leaf_vector":"1"}},{"base_weights":[4.086239E-4,5.8718526E-1,-2.2742543E-1,6.835672E-1,-4.2343828E-1,-1.5709415E-1,-6.2045127E-2,9.8684776E-1,4.3357366E-1,-3.2397032E-1,-5.8419306E-2,-6.0885223E-3,-3.8776156E-1,1.0251958E0,-5.29665E-2,-3.0440003E-1,6.4563644E-1,-4.7877073E-1,3.3741865E-2,-3.784941E-1,2.0657739E-1,-4.4448406E-1,5.4680526E-1,5.8875906E-1,1.1090988E0,-4.1469735E-1,1.0044664E-1,7.4044317E-1,-4.6522468E-1,-5.706279E-2,-6.003371E-2,-4.4252288E-1,4.003339E-1,4.693159E-1,-4.0805063E-1,-5.8158094E-1,-1.3988562E-1,7.380172E-1,-4.769753E-2,6.7309976E-2,-4.5698833E-2,1.19809866E-1,7.2820134E-2,-5.1417526E-2,3.9674684E-2,7.766642E-2,-5.377191E-2,-5.683857E-2,-1.655451E-2,-4.855387E-2,4.7918882E-2,-2.7512819E-2,-5.9693452E-2,-1.553645E-2,7.35014E-2,6.6228405E-2,-5.7561632E-2,-5.1419627E-2,8.845361E-2,-5.942905E-2,-4.4345923E-2,9.33186E-2,-3.441584E-2,8.209544E-2,-3.455568E-2],"categories":[],"categories_nodes":[],"categories_segments":[],"categories_sizes":[],"default_left":[0,0,0,0,0,0,0,0,0,0,0,0,0,0,0,0,0,0,0,0,0,0,0,0,0,0,0,0,0,0,0,0,0,0,0,0,0,0,0,0,0,0,0,0,0,0,0,0,0,0,0,0,0,0,0,0,0,0,0,0,0,0,0,0,0],"id":13,"left_children":[1,3,5,7,9,11,-1,13,15,17,-1,19,21,23,-1,25,27,29,-1,31,33,35,37,39,41,43,-1,45,47,49,-1,51,53,55,57,59,61,63,-1,-1,-1,-1,-1,-1,-1,-1,-1,-1,-1,-1,-1,-1,-1,-1,-1,-1,-1,-1,-1,-1,-1,-1,-1,-1,-1],"loss_changes":[2.1615869E2,4.4338303E1,3.2096466E1,3.090245E1,4.50181E-1,3.4454636E1,0E0,1.1355896E1,3.592442E1,2.9207013E0,0E0,4.7507214E1,2.0989677E1,6.0000916E0,0E0,7.871416E0,1.9054985E1,1.106473E0,0E0,1.1049908E1,6.1852413E1,1.5349709E1,4.823673E0,3.079506E0,4.255188E0,4.105522E0,0E0,8.013657E0,3.5678005E-1,1.6306248E0,0E0,5.055584E0,3.292283E0,5.4411E1,1.6216602E1,1.8323517E-1,2.5750902E1,2.0487309E0,0E0,0E0,0E0,0E0,0E0,0E0,0E0,0E0,0E0,0E0,0E0,0E0,0E0,0E0,0E0,0E0,0E0,0E0,0E0,0E0,0E0,0E0,0E0,0E0,0E0,0E0,0E0],"parents":[2147483647,0,0,1,1,2,2,3,3,4,4,5,5,7,7,8,8,9,9,11,11,12,12,13,13,15,15,16,16,17,17,19,19,20,20,21,21,22,22,23,23,24,24,25,25,27,27,28,28,29,29,31,31,32,32,33,33,34,34,35,35,36,36,37,37],"right_children":[2,4,6,8,10,12,-1,14,16,18,-1,20,22,24,-1,26,28,30,-1,32,34,36,38,40,42,44,-1,46,48,50,-1,52,54,56,58,60,62,64,-1,-1,-1,-1,-1,-1,-1,-1,-1,-1,-1,-1,-1,-1,-1,-1,-1,-1,-1,-1,-1,-1,-1,-1,-1,-1,-1],"split_conditions":[8.9E1,5.2E1,1.01E0,4.4E1,1.01E0,2.7E1,-6.2045127E-2,1.2191361E2,4.8E1,6.6E1,-5.8419306E-2,1.2E1,1E0,1.8E1,-5.29665E-2,4.1E1,1E0,5.5E1,3.3741865E-2,5.5E1,1E0,4.1E1,3.0445231E-2,2E0,4E1,4E0,1.0044664E-1,1.01E0,6.1E1,3E0,-6.003371E-2,4E0,2.12E2,1E0,2.3E1,1E0,4.2E1,1E0,-4.769753E-2,6.7309976E-2,-4.5698833E-2,1.19809866E-1,7.2820134E-2,-5.1417526E-2,3.9674684E-2,7.766642E-2,-5.377191E-2,-5.683857E-2,-1.655451E-2,-4.855387E-2,4.7918882E-2,-2.7512819E-2,-5.9693452E-2,-1.553645E-2,7.35014E-2,6.6228405E-2,-5.7561632E-2,-5.1419627E-2,8.845361E-2,-5.942905E-2,-4.4345923E-2,9.33186E-2,-3.441584E-2,8.209544E-2,-3.455568E-2],"split_indices":[1,0,10,1,10,0,0,21,1,0,0,0,4,1,0,0,5,0,0,3,19,0,21,2,1,2,0,10,1,2,0,0,2,9,12,6,0,9,0,0,0,0,0,0,0,0,0,0,0,0,0,0,0,0,0,0,0,0,0,0,0,0,0,0,0],"split_type":[0,0,0,0,0,0,0,0,0,0,0,0,0,0,0,0,0,0,0,0,0,0,0,0,0,0,0,0,0,0,0,0,0,0,0,0,0,0,0,0,0,0,0,0,0,0,0,0,0,0,0,0,0,0,0,0,0,0,0,0,0,0,0,0,0],"sum_hessian":[1.614894E3,4.5121985E2,1.1636742E3,4.122296E2,3.899024E1,9.882316E2,1.7544258E2,1.8493167E2,2.2729794E2,2.5949272E1,1.3040965E1,5.9786664E2,3.9036496E2,1.8068663E2,4.245044E0,5.0639206E1,1.7665874E2,2.1251415E1,4.697856E0,2.1703336E2,3.808333E2,3.685223E2,2.1842659E1,3.0427853E1,1.5025877E2,4.7333595E1,3.3056085E0,1.6307454E2,1.358419E1,5.0841465E0,1.6167269E1,2.0094513E2,1.6088224E1,2.6695358E2,1.1387973E2,2.5351036E2,1.1501194E2,1.8640324E1,3.2023354E0,2.8486713E1,1.9411402E0,1.2006024E2,3.019853E1,4.2490837E1,4.8427615E0,1.5896219E2,4.112361E0,9.438471E0,4.145719E0,2.878631E0,2.2055154E0,9.775384E1,1.03191284E2,6.248717E0,9.839507E0,2.2564906E2,4.1304523E1,1.05794235E2,8.085498E0,2.2912437E2,2.4385996E1,1.7822052E1,9.718989E1,1.754016E1,1.1001647E0],"tree_param":{"num_deleted":"0","num_feature":"24","num_nodes":"65","size_leaf_vector":"1"}},{"base_weights":[-1.0764033E-3,-2.7548164E-1,1.2478149E-1,7.2860765E-1,-3.8731092E-1,1.1441277E-1,8.5933876E-1,-4.0738112E-1,4.5220459E-1,8.33911E-1,-4.06761E-1,9.9491966E-1,7.042803E-2,-4.4070193E-1,6.834278E-2,-2.0254603E-1,9.040438E-1,1.1205893E-1,4.761642E-1,-6.683462E-2,-5.0238818E-2,1.0404909E0,-9.174753E-2,6.9931394E-1,-3.9014232E-1,3.12325E-1,-4.5928243E-1,-9.387171E-2,1.1607343E-1,-3.2807937E-1,5.196627E-2,5.675973E-1,1.2148645E-1,-3.4981612E-2,7.1415454E-2,-3.8539756E-2,2.1654818E-2,1.0787242E-1,5.0715543E-2,3.829324E-2,-4.446773E-2,9.155234E-2,-3.3116356E-2,-5.661678E-2,5.3358167E-2,-5.0342645E-2,4.3752406E-2,-4.0029164E-2,-5.8009505E-2,1.0403146E-1,-1.9988349E-2,-1.6505217E-2,-5.0884046E-2,7.5922154E-2,3.9971126E-3],"categories":[],"categories_nodes":[],"categories_segments":[],"categories_sizes":[],"default_left":[0,0,0,0,0,0,0,0,0,0,0,0,0,0,0,0,0,0,0,0,0,0,0,0,0,0,0,0,0,0,0,0,0,0,0,0,0,0,0,0,0,0,0,0,0,0,0,0,0,0,0,0,0,0,0],"id":14,"left_children":[1,3,-1,5,7,9,11,13,15,17,19,21,23,25,27,29,31,-1,33,35,-1,37,39,41,43,45,47,49,-1,51,-1,53,-1,-1,-1,-1,-1,-1,-1,-1,-1,-1,-1,-1,-1,-1,-1,-1,-1,-1,-1,-1,-1,-1,-1],"loss_changes":[5.5218085E2,1.4861296E2,0E0,1.0559013E1,2.022258E1,9.506351E0,1.1618805E1,1.8450073E1,8.538251E0,5.5325747E-1,4.4912338E-1,4.709755E0,5.2265944E0,1.5339783E1,1.3741002E1,1.2900307E0,1.0770521E0,0E0,1.5183644E0,4.81905E-1,0E0,1.2781143E0,9.5252293E-1,1.9938667E0,2.011734E0,2.9521573E0,7.324753E0,8.373011E0,0E0,2.4409378E-1,0E0,9.7961545E-1,0E0,0E0,0E0,0E0,0E0,0E0,0E0,0E0,0E0,0E0,0E0,0E0,0E0,0E0,0E0,0E0,0E0,0E0,0E0,0E0,0E0,0E0,0E0],"parents":[2147483647,0,0,1,1,3,3,4,4,5,5,6,6,7,7,8,8,9,9,10,10,11,11,12,12,13,13,14,14,15,15,16,16,18,18,19,19,21,21,22,22,23,23,24,24,25,25,26,26,27,27,29,29,31,31],"right_children":[2,4,-1,6,8,10,12,14,16,18,20,22,24,26,28,30,32,-1,34,36,-1,38,40,42,44,46,48,50,-1,52,-1,54,-1,-1,-1,-1,-1,-1,-1,-1,-1,-1,-1,-1,-1,-1,-1,-1,-1,-1,-1,-1,-1,-1,-1],"split_conditions":[1.01E0,1E0,1.2478149E-1,1.19E2,6.5E1,6E0,1E0,1E0,1E0,2E0,7E0,3.36E2,5E0,8E0,4.19E2,3.23E2,2E0,1.1205893E-1,6.1E1,6.9E1,-5.0238818E-2,1E0,1.92E2,1.7E1,3.649E3,6E0,3.0445231E-2,6E0,1.1607343E-1,5E0,5.196627E-2,4.2E1,1.2148645E-1,-3.4981612E-2,7.1415454E-2,-3.8539756E-2,2.1654818E-2,1.0787242E-1,5.0715543E-2,3.829324E-2,-4.446773E-2,9.155234E-2,-3.3116356E-2,-5.661678E-2,5.3358167E-2,-5.0342645E-2,4.3752406E-2,-4.0029164E-2,-5.8009505E-2,1.0403146E-1,-1.9988349E-2,-1.6505217E-2,-5.0884046E-2,7.5922154E-2,3.9971126E-3],"split_indices":[10,0,0,1,0,2,9,7,16,3,2,2,3,1,21,1,13,0,1,1,0,7,3,2,1,1,21,2,0,2,0,21,0,0,0,0,0,0,0,0,0,0,0,0,0,0,0,0,0,0,0,0,0,0,0],"split_type":[0,0,0,0,0,0,0,0,0,0,0,0,0,0,0,0,0,0,0,0,0,0,0,0,0,0,0,0,0,0,0,0,0,0,0,0,0,0,0,0,0,0,0,0,0,0,0,0,0,0,0,0,0,0,0],"sum_hessian":[1.6092521E3,1.3200018E3,2.8925018E2,1.317283E2,1.1882736E3,2.34468E1,1.08281494E2,1.1610316E3,2.7241896E1,9.597315E0,1.3849485E1,9.2178696E1,1.6102802E1,1.0851022E3,7.5929504E1,1.1348604E1,1.5893292E1,4.1441064E0,5.4532084E0,3.4136999E0,1.0435785E1,8.850939E1,3.6692994E0,6.58836E0,9.514443E0,2.5748857E1,1.0593533E3,6.6908066E1,9.021434E0,1.0133024E1,1.2155806E0,8.98915E0,6.904142E0,1.1146785E0,4.33853E0,1.4376197E0,1.9760801E0,8.163464E1,6.8747544E0,1.5285012E0,2.1407983E0,5.5379667E0,1.050393E0,8.31669E0,1.1977527E0,3.0240757E0,2.2724781E1,7.146935E2,3.446598E2,4.9659333E0,6.1942135E1,6.333752E0,3.7992718E0,6.272247E0,2.716903E0],"tree_param":{"num_deleted":"0","num_feature":"24","num_nodes":"55","size_leaf_vector":"1"}},{"base_weights":[-5.422676E-5,8.374847E-2,-6.2051274E-2,2.3229685E-1,-2.9344454E-1,6.2783875E-2,4.6898878E-1,-5.474975E-1,1.8724935E-1,4.009105E-1,-1.809444E-1,7.3457724E-1,-3.078008E-1,-4.3130457E-1,-6.012925E-2,4.280549E-1,-4.7057194E-1,-2.8358716E-1,8.456826E-1,-3.0701348E-1,4.943417E-1,8.6810917E-1,-4.6141607E-1,-4.0145808E-1,3.7455738E-1,3.788661E-1,-4.869547E-1,1.7742477E-1,9.6368647E-1,-6.738481E-2,-5.810486E-1,-5.2869838E-2,9.113348E-2,9.5875405E-2,-2.9601946E-2,-5.8349956E-2,2.0368032E-3,6.595994E-2,-2.4891034E-2,6.653069E-2,1.3590042E-1,-1.1563889E-2,-5.313356E-2,-5.2397337E-2,-1.0888509E-2,1.0630924E-2,1.0781213E-1,-4.3280136E-2,8.907054E-2,-5.4857917E-2,-3.946032E-3,-1.39792925E-2,5.505377E-2,1.1044045E-1,-4.803559E-2,4.8001233E-2,-5.4371472E-2,-6.1185937E-2,5.3153344E-4],"categories":[],"categories_nodes":[],"categories_segments":[],"categories_sizes":[],"default_left":[0,0,0,0,0,0,0,0,0,0,0,0,0,0,0,0,0,0,0,0,0,0,0,0,0,0,0,0,0,0,0,0,0,0,0,0,0,0,0,0,0,0,0,0,0,0,0,0,0,0,0,0,0,0,0,0,0,0,0],"id":15,"left_children":[1,3,-1,5,7,9,11,13,15,17,19,21,23,25,-1,27,29,31,33,35,37,39,41,43,45,47,49,51,53,55,57,-1,-1,-1,-1,-1,-1,-1,-1,-1,-1,-1,-1,-1,-1,-1,-1,-1,-1,-1,-1,-1,-1,-1,-1,-1,-1,-1,-1],"loss_changes":[8.4228355E1,8.003285E1,0E0,4.107429E1,4.940071E1,4.9362408E1,8.839354E1,1.3930206E0,2.2429987E1,7.6607895E1,2.9799637E1,5.130902E1,7.154193E0,4.11582E0,0E0,1.3689335E1,1.657012E0,2.9637589E1,1.9944511E1,2.6631344E1,6.940668E0,2.767804E1,7.2837687E-1,3.4144487E0,2.479299E0,2.947493E0,2.2404385E0,8.546763E0,7.1722355E0,2.691404E0,5.408745E-1,0E0,0E0,0E0,0E0,0E0,0E0,0E0,0E0,0E0,0E0,0E0,0E0,0E0,0E0,0E0,0E0,0E0,0E0,0E0,0E0,0E0,0E0,0E0,0E0,0E0,0E0,0E0,0E0],"parents":[2147483647,0,0,1,1,3,3,4,4,5,5,6,6,7,7,8,8,9,9,10,10,11,11,12,12,13,13,15,15,16,16,17,17,18,18,19,19,20,20,21,21,22,22,23,23,24,24,25,25,26,26,27,27,28,28,29,29,30,30],"right_children":[2,4,-1,6,8,10,12,14,16,18,20,22,24,26,-1,28,30,32,34,36,38,40,42,44,46,48,50,52,54,56,58,-1,-1,-1,-1,-1,-1,-1,-1,-1,-1,-1,-1,-1,-1,-1,-1,-1,-1,-1,-1,-1,-1,-1,-1,-1,-1,-1,-1],"split_conditions":[1.01E0,3.0445231E-2,-6.2051274E-2,2.9E1,1E0,1.2E1,4.1E1,1.3125388E1,2E0,1E0,1E0,1E0,1E0,1E1,-6.012925E-2,2E0,3E0,1E0,1E0,1.4E1,1E0,1E0,1.1E1,5.2E1,1.5E1,1.88E2,4.4E1,2.7E1,5E0,1.69E2,1.1E2,-5.2869838E-2,9.113348E-2,9.5875405E-2,-2.9601946E-2,-5.8349956E-2,2.0368032E-3,6.595994E-2,-2.4891034E-2,6.653069E-2,1.3590042E-1,-1.1563889E-2,-5.313356E-2,-5.2397337E-2,-1.0888509E-2,1.0630924E-2,1.0781213E-1,-4.3280136E-2,8.907054E-2,-5.4857917E-2,-3.946032E-3,-1.39792925E-2,5.505377E-2,1.1044045E-1,-4.803559E-2,4.8001233E-2,-5.4371472E-2,-6.1185937E-2,5.3153344E-4],"split_indices":[10,21,0,0,9,0,0,21,13,0,9,6,9,0,0,14,13,9,7,2,7,5,2,0,3,1,0,0,16,1,2,0,0,0,0,0,0,0,0,0,0,0,0,0,0,0,0,0,0,0,0,0,0,0,0,0,0,0,0],"split_type":[0,0,0,0,0,0,0,0,0,0,0,0,0,0,0,0,0,0,0,0,0,0,0,0,0,0,0,0,0,0,0,0,0,0,0,0,0,0,0,0,0,0,0,0,0,0,0,0,0,0,0,0,0,0,0,0,0,0,0],"sum_hessian":[1.6178982E3,1.4261404E3,1.917577E2,1.02345966E3,4.0268076E2,5.9709796E2,4.263617E2,2.6335516E2,1.3932559E2,2.4984317E2,3.472548E2,3.177691E2,1.08592606E2,8.619607E1,1.7715912E2,1.0224612E2,3.707947E1,9.854551E1,1.5129765E2,2.930843E2,5.4170506E1,2.8610034E2,3.166877E1,9.584854E1,1.2744061E1,5.166893E0,8.1029175E1,7.056086E1,3.1685253E1,8.32116E0,2.8758312E1,8.2234505E1,1.6311007E1,1.3780957E2,1.3488087E1,1.5846893E2,1.3461534E2,4.4408985E1,9.761522E0,2.0412569E2,8.197464E1,5.7730184E0,2.589575E1,6.700092E1,2.8847622E1,1.0059697E1,2.6843643E0,2.0579093E0,3.1089838E0,7.1022736E1,1.0006438E1,3.847503E1,3.2085835E1,2.9086094E1,2.5991602E0,3.868155E0,4.453005E0,2.7281324E1,1.4769893E0],"tree_param":{"num_deleted":"0","num_feature":"24","num_nodes":"59","size_leaf_vector":"1"}},{"base_weights":[1.0897467E-3,-2.7309656E-1,5.992158E-1,-4.534144E-1,-3.6731165E-2,1.0791837E-1,8.022845E-1,-4.8685148E-1,7.6661533E-1,-4.1215372E-1,1.567276E-1,6.476648E-1,-1.6068862E-1,9.1298157E-1,-2.7492967E-1,-4.9825072E-1,9.463864E-2,9.5030683E-1,-4.1721255E-2,-4.9800822E-1,5.6196187E-2,3.709779E-1,-6.0599674E-2,9.324511E-1,-5.6399733E-2,-5.616166E-1,3.9351866E-1,-2.8392392E-1,9.5787746E-1,2.8517988E-1,-5.8940895E-2,-5.5567265E-1,-1.9548927E-1,1.0563761E0,3.4684053E-5,-5.982688E-1,-3.2892162E-1,7.834583E-1,-4.6183276E-1,5.574526E-1,3.7376948E-2,1.0673766E0,-4.7651872E-2,4.8025172E-2,-5.933295E-2,6.135896E-1,-5.64298E-2,8.398562E-2,-4.969988E-1,1.0589707E0,5.8541983E-1,-1.839244E-1,8.0866957E-1,-5.021214E-2,-6.1400987E-2,1.1852852E-2,-5.396336E-2,1.124151E-1,4.719963E-2,-6.0931146E-2,2.4216145E-3,1.5580492E-2,-5.1668357E-2,9.490948E-2,-3.569789E-2,-2.0326866E-2,-5.5692103E-2,1.15627386E-1,4.5301195E-2,-6.1998695E-2,7.717976E-2,1.11394994E-1,1.8291228E-2,8.5184745E-2,-9.053933E-3,1.2684949E-2,-5.7916194E-2,1.0777118E-1,-1.0762526E-2,8.966071E-2,6.355838E-3,-5.3455215E-2,6.442572E-2,9.9042706E-2,4.3253764E-3],"categories":[],"categories_nodes":[],"categories_segments":[],"categories_sizes":[],"default_left":[0,0,0,0,0,0,0,0,0,0,0,0,0,0,0,0,0,0,0,0,0,0,0,0,0,0,0,0,0,0,0,0,0,0,0,0,0,0,0,0,0,0,0,0,0,0,0,0,0,0,0,0,0,0,0,0,0,0,0,0,0,0,0,0,0,0,0,0,0,0,0,0,0,0,0,0,0,0,0,0,0,0,0,0,0],"id":16,"left_children":[1,3,5,7,9,11,13,15,17,19,21,23,25,27,29,31,-1,33,-1,35,37,39,-1,41,-1,43,45,47,49,51,-1,53,55,57,-1,59,61,63,65,67,69,71,-1,-1,-1,73,-1,-1,75,77,79,81,83,-1,-1,-1,-1,-1,-1,-1,-1,-1,-1,-1,-1,-1,-1,-1,-1,-1,-1,-1,-1,-1,-1,-1,-1,-1,-1,-1,-1,-1,-1,-1,-1],"loss_changes":[2.6078564E2,4.6455162E1,4.9779587E1,2.5601166E1,3.4413185E1,2.1463974E1,4.240335E1,1.0315628E1,4.0683126E0,6.5060234E0,5.134529E1,1.7487572E1,2.2257477E1,1.7509766E1,6.10577E0,1.0295242E1,0E0,1.503212E0,0E0,2.1130142E0,1.0102972E1,1.5210529E1,0E0,8.146572E0,0E0,2.1999016E0,9.245249E0,3.3791556E0,1.1030487E1,3.2908118E0,0E0,1.2614746E0,1.0540847E1,1.039505E-3,0E0,5.943012E-1,4.8985553E0,2.4406366E0,2.7352524E-1,9.294136E0,4.3379383E1,1.3193245E0,0E0,0E0,0E0,5.916855E0,0E0,0E0,6.386194E-1,5.409668E0,1.1033123E1,2.5404766E0,8.2419205E-1,0E0,0E0,0E0,0E0,0E0,0E0,0E0,0E0,0E0,0E0,0E0,0E0,0E0,0E0,0E0,0E0,0E0,0E0,0E0,0E0,0E0,0E0,0E0,0E0,0E0,0E0,0E0,0E0,0E0,0E0,0E0,0E0],"parents":[2147483647,0,0,1,1,2,2,3,3,4,4,5,5,6,6,7,7,8,8,9,9,10,10,11,11,12,12,13,13,14,14,15,15,17,17,19,19,20,20,21,21,23,23,25,25,26,26,27,27,28,28,29,29,31,31,32,32,33,33,35,35,36,36,37,37,38,38,39,39,40,40,41,41,45,45,48,48,49,49,50,50,51,51,52,52],"right_children":[2,4,6,8,10,12,14,16,18,20,22,24,26,28,30,32,-1,34,-1,36,38,40,-1,42,-1,44,46,48,50,52,-1,54,56,58,-1,60,62,64,66,68,70,72,-1,-1,-1,74,-1,-1,76,78,80,82,84,-1,-1,-1,-1,-1,-1,-1,-1,-1,-1,-1,-1,-1,-1,-1,-1,-1,-1,-1,-1,-1,-1,-1,-1,-1,-1,-1,-1,-1,-1,-1,-1],"split_conditions":[3.0445231E-2,2.9E1,2E0,1E0,1.19E2,2.4E1,1E0,1E0,4.65E2,5.5E1,1.01E0,1E0,2.7E1,9E0,4E0,1E0,9.463864E-2,1E0,-4.1721255E-2,9.2E1,6.6E1,1E0,-6.0599674E-2,6E0,-5.6399733E-2,1.9E0,8E0,9.8E1,1E0,2.7227962E1,-5.8940895E-2,1E0,8E0,7E0,3.4684053E-5,7E0,5E0,1E0,1.01E0,1.27E2,1E0,1E0,-4.7651872E-2,4.8025172E-2,-5.933295E-2,1E0,-5.64298E-2,8.398562E-2,2.8041801E0,6.1E1,2.8E1,1E0,4.8E1,-5.021214E-2,-6.1400987E-2,1.1852852E-2,-5.396336E-2,1.124151E-1,4.719963E-2,-6.0931146E-2,2.4216145E-3,1.5580492E-2,-5.1668357E-2,9.490948E-2,-3.569789E-2,-2.0326866E-2,-5.5692103E-2,1.15627386E-1,4.5301195E-2,-6.1998695E-2,7.717976E-2,1.11394994E-1,1.8291228E-2,8.5184745E-2,-9.053933E-3,1.2684949E-2,-5.7916194E-2,1.0777118E-1,-1.0762526E-2,8.966071E-2,6.355838E-3,-5.3455215E-2,6.442572E-2,9.9042706E-2,4.3253764E-3],"split_indices":[21,0,3,17,1,0,8,19,1,0,10,8,0,0,14,8,0,9,0,1,0,5,0,20,0,21,12,1,9,21,0,4,0,17,0,2,2,5,10,1,6,4,0,0,0,15,0,0,21,0,0,13,2,0,0,0,0,0,0,0,0,0,0,0,0,0,0,0,0,0,0,0,0,0,0,0,0,0,0,0,0,0,0,0,0],"split_type":[0,0,0,0,0,0,0,0,0,0,0,0,0,0,0,0,0,0,0,0,0,0,0,0,0,0,0,0,0,0,0,0,0,0,0,0,0,0,0,0,0,0,0,0,0,0,0,0,0,0,0,0,0,0,0,0,0,0,0,0,0,0,0,0,0,0,0,0,0,0,0,0,0,0,0,0,0,0,0,0,0,0,0,0,0],"sum_hessian":[1.5881783E3,1.0893528E3,4.9882556E2,6.174192E2,4.7193356E2,1.4633032E2,3.524952E2,6.0153406E2,1.5885156E1,1.6010542E2,3.1182812E2,4.815504E1,9.817529E1,3.1978574E2,3.2709473E1,5.9743475E2,4.0993333E0,1.3922151E1,1.9630051E0,1.352492E2,2.485622E1,2.4384528E2,6.798286E1,3.9177326E1,8.977714E0,5.695743E1,4.121786E1,1.1368999E1,3.0841675E2,1.1794972E1,2.0914501E1,5.0148706E2,9.594767E1,1.24230175E1,1.4991329E0,8.331123E1,5.1937973E1,1.0126799E1,1.4729422E1,1.559834E2,8.786187E1,3.5974762E1,3.2025654E0,1.2646899E0,5.569274E1,3.380915E1,7.4087095E0,1.3432024E0,1.0025797E1,2.4112648E2,6.7290276E1,6.5627155E0,5.232257E0,2.6647812E2,2.3500894E2,5.051257E1,4.54351E1,1.0304288E1,2.1187303E0,8.1879875E1,1.4313579E0,1.4548847E1,3.7389126E1,8.989018E0,1.1377805E0,4.8040156E0,9.9254055E0,2.1669271E1,1.3431413E2,4.644541E1,4.1416462E1,3.392871E1,2.0460482E0,2.5104643E1,8.704508E0,1.1034735E0,8.922323E0,2.3738905E2,3.7374253E0,4.170399E1,2.5586285E1,4.859776E0,1.7029393E0,3.990654E0,1.2416027E0],"tree_param":{"num_deleted":"0","num_feature":"24","num_nodes":"85","size_leaf_vector":"1"}},{"base_weights":[4.9901614E-4,5.403538E-1,-2.1556672E-1,6.265294E-1,-4.084951E-1,-1.4823127E-1,-6.0871806E-2,8.89296E-1,4.019355E-1,-3.1049967E-1,-5.708905E-2,-4.226205E-3,-3.742168E-1,9.2257416E-1,-5.172515E-2,-2.9312578E-1,5.9532064E-1,-4.6470487E-1,3.0995756E-2,-3.5999364E-1,1.9141373E-1,-5.357892E-1,-4.7956202E-2,5.36869E-1,9.9600863E-1,-4.0160745E-1,9.233446E-2,6.807284E-1,-4.518355E-1,-6.265761E-2,-5.870073E-2,-4.234177E-1,3.7849486E-1,4.2728186E-1,-3.9406678E-1,-5.699039E-1,3.1934118E-1,2.9711366E-1,-5.6694555E-1,6.529375E-2,-1.9481828E-2,-5.7456484E-3,1.0195792E-1,-5.0089158E-2,3.6843427E-2,7.132256E-2,-5.2104045E-2,-5.546695E-2,-1.6464636E-2,-4.8072062E-2,4.457506E-2,-2.5215928E-2,-5.857606E-2,-1.41494E-2,6.771415E-2,5.9770938E-2,-5.6510687E-2,-5.010085E-2,8.1542395E-2,-5.8286555E-2,-4.3026898E-2,-7.0596165E-3,1.0211455E-1,1.1505973E-1,7.3337774E-3,-6.20789E-2,4.8602533E-2],"categories":[],"categories_nodes":[],"categories_segments":[],"categories_sizes":[],"default_left":[0,0,0,0,0,0,0,0,0,0,0,0,0,0,0,0,0,0,0,0,0,0,0,0,0,0,0,0,0,0,0,0,0,0,0,0,0,0,0,0,0,0,0,0,0,0,0,0,0,0,0,0,0,0,0,0,0,0,0,0,0,0,0,0,0,0,0],"id":17,"left_children":[1,3,5,7,9,11,-1,13,15,17,-1,19,21,23,-1,25,27,29,-1,31,33,35,37,39,41,43,-1,45,47,49,-1,51,53,55,57,59,61,63,65,-1,-1,-1,-1,-1,-1,-1,-1,-1,-1,-1,-1,-1,-1,-1,-1,-1,-1,-1,-1,-1,-1,-1,-1,-1,-1,-1,-1],"loss_changes":[1.859146E2,3.7507248E1,3.0043682E1,2.4313446E1,4.360056E-1,3.1668076E1,0E0,9.455933E0,3.071561E1,2.6532817E0,0E0,4.1510555E1,1.9940292E1,4.783081E0,0E0,6.985865E0,1.6234943E1,1.0157585E0,0E0,1.0071066E1,5.3308926E1,7.568817E0,2.2830868E1,2.8616247E0,3.945877E0,3.7564268E0,0E0,6.81781E0,3.230462E-1,1.5134194E0,0E0,5.2831E0,2.7767098E0,4.681174E1,1.4769232E1,1.9057465E-1,2.9058394E0,1.4557512E1,3.1864052E0,0E0,0E0,0E0,0E0,0E0,0E0,0E0,0E0,0E0,0E0,0E0,0E0,0E0,0E0,0E0,0E0,0E0,0E0,0E0,0E0,0E0,0E0,0E0,0E0,0E0,0E0,0E0,0E0],"parents":[2147483647,0,0,1,1,2,2,3,3,4,4,5,5,7,7,8,8,9,9,11,11,12,12,13,13,15,15,16,16,17,17,19,19,20,20,21,21,22,22,23,23,24,24,25,25,27,27,28,28,29,29,31,31,32,32,33,33,34,34,35,35,36,36,37,37,38,38],"right_children":[2,4,6,8,10,12,-1,14,16,18,-1,20,22,24,-1,26,28,30,-1,32,34,36,38,40,42,44,-1,46,48,50,-1,52,54,56,58,60,62,64,66,-1,-1,-1,-1,-1,-1,-1,-1,-1,-1,-1,-1,-1,-1,-1,-1,-1,-1,-1,-1,-1,-1,-1,-1,-1,-1,-1,-1],"split_conditions":[8.8E1,5.2E1,1.01E0,4.4E1,1.01E0,2.7E1,-6.0871806E-2,1.2191361E2,4.8E1,6.6E1,-5.708905E-2,1.2E1,4.1E1,1.8E1,-5.172515E-2,4.1E1,1E0,5.5E1,3.0995756E-2,5.5E1,1E0,1E0,3.0445231E-2,1.6777779E1,8E0,4E0,9.233446E-2,1.01E0,6.1E1,3E0,-5.870073E-2,4E0,2.12E2,1E0,1.9E1,1E0,1E0,4.2E1,1E0,6.529375E-2,-1.9481828E-2,-5.7456484E-3,1.0195792E-1,-5.0089158E-2,3.6843427E-2,7.132256E-2,-5.2104045E-2,-5.546695E-2,-1.6464636E-2,-4.8072062E-2,4.457506E-2,-2.5215928E-2,-5.857606E-2,-1.41494E-2,6.771415E-2,5.9770938E-2,-5.6510687E-2,-5.010085E-2,8.1542395E-2,-5.8286555E-2,-4.3026898E-2,-7.0596165E-3,1.0211455E-1,1.1505973E-1,7.3337774E-3,-6.20789E-2,4.8602533E-2],"split_indices":[1,0,10,1,10,0,0,21,1,0,0,0,0,1,0,0,5,0,0,3,19,4,21,21,0,2,0,10,1,2,0,0,2,9,16,6,6,0,18,0,0,0,0,0,0,0,0,0,0,0,0,0,0,0,0,0,0,0,0,0,0,0,0,0,0,0,0],"split_type":[0,0,0,0,0,0,0,0,0,0,0,0,0,0,0,0,0,0,0,0,0,0,0,0,0,0,0,0,0,0,0,0,0,0,0,0,0,0,0,0,0,0,0,0,0,0,0,0,0,0,0,0,0,0,0,0,0,0,0,0,0,0,0,0,0,0,0],"sum_hessian":[1.5918632E3,4.545753E2,1.1372878E3,4.17039E2,3.7536297E1,9.721617E2,1.6512614E2,1.9082326E2,2.2621574E2,2.5225988E1,1.2310307E1,5.944061E2,3.7775555E2,1.8674896E2,4.074295E0,4.9127357E1,1.7708838E2,2.0405533E1,4.820456E0,2.1059787E2,3.8380826E2,2.5221176E2,1.25543785E2,3.1197731E1,1.5555124E2,4.5720024E1,3.4073346E0,1.6405753E2,1.3030862E1,5.112249E0,1.5293284E1,1.9433438E2,1.626349E1,2.7378198E2,1.10026276E2,2.4285675E2,9.355015E0,7.566352E1,4.9880264E1,2.7019257E1,4.1784744E0,3.372719E0,1.5217851E2,4.080803E1,4.9119916E0,1.6013383E2,3.9236906E0,8.909323E0,4.1215396E0,2.835271E0,2.2769778E0,9.58129E1,9.8521484E1,6.1250577E0,1.0138433E1,2.3399469E2,3.978729E1,1.0162636E2,8.399915E0,2.1932375E2,2.3532997E1,6.5918503E0,2.763164E0,1.4857004E1,6.080652E1,4.78442E1,2.0360615E0],"tree_param":{"num_deleted":"0","num_feature":"24","num_nodes":"67","size_leaf_vector":"1"}},{"base_weights":[-1.7074365E-3,-2.6308435E-1,1.1208921E-1,6.632573E-1,-3.7217653E-1,1.05242014E-1,7.789966E-1,-3.9217752E-1,4.2900833E-1,7.766936E-1,-3.9961234E-1,8.9506465E-1,7.362188E-2,-4.2513794E-1,6.2771514E-2,-1.9023311E-1,8.3793026E-1,1.0418431E-1,4.4462854E-1,-6.494907E-2,-4.953295E-2,9.232938E-1,-4.08553E-2,6.600381E-1,-3.770077E-1,2.9218552E-1,-4.4380006E-1,-8.939011E-2,1.04932465E-1,-3.159177E-1,5.1062644E-2,5.32584E-1,1.1164092E-1,-3.4427755E-2,6.6620104E-2,-3.7839644E-2,2.08718E-2,9.69348E-2,5.037461E-2,-3.959278E-2,9.6993856E-2,-5.563259E-2,5.2301925E-2,1.3323604E-2,9.543273E-2,-3.848159E-2,-5.6708753E-2,9.533077E-2,-1.9119535E-2,-1.5700122E-2,-4.9640372E-2,7.106851E-2,3.4587947E-3],"categories":[],"categories_nodes":[],"categories_segments":[],"categories_sizes":[],"default_left":[0,0,0,0,0,0,0,0,0,0,0,0,0,0,0,0,0,0,0,0,0,0,0,0,0,0,0,0,0,0,0,0,0,0,0,0,0,0,0,0,0,0,0,0,0,0,0,0,0,0,0,0,0],"id":18,"left_children":[1,3,-1,5,7,9,11,13,15,17,19,21,23,25,27,29,31,-1,33,35,-1,37,-1,39,41,43,45,47,-1,49,-1,51,-1,-1,-1,-1,-1,-1,-1,-1,-1,-1,-1,-1,-1,-1,-1,-1,-1,-1,-1,-1,-1],"loss_changes":[4.6416275E2,1.2991617E2,0E0,8.672359E0,1.8573776E1,8.59558E0,9.112556E0,1.6838455E1,7.3642664E0,4.9027443E-1,4.35884E-1,3.916565E0,4.7227635E0,1.412587E1,1.1593976E1,1.2299249E0,8.78314E-1,0E0,1.3747466E0,4.5645922E-1,0E0,1.3365784E0,0E0,2.9104397E0,1.9387684E0,2.7265186E0,7.1949463E0,7.3256063E0,0E0,2.3482502E-1,0E0,8.778281E-1,0E0,0E0,0E0,0E0,0E0,0E0,0E0,0E0,0E0,0E0,0E0,0E0,0E0,0E0,0E0,0E0,0E0,0E0,0E0,0E0,0E0],"parents":[2147483647,0,0,1,1,3,3,4,4,5,5,6,6,7,7,8,8,9,9,10,10,11,11,12,12,13,13,14,14,15,15,16,16,18,18,19,19,21,21,23,23,24,24,25,25,26,26,27,27,29,29,31,31],"right_children":[2,4,-1,6,8,10,12,14,16,18,20,22,24,26,28,30,32,-1,34,36,-1,38,-1,40,42,44,46,48,-1,50,-1,52,-1,-1,-1,-1,-1,-1,-1,-1,-1,-1,-1,-1,-1,-1,-1,-1,-1,-1,-1,-1,-1],"split_conditions":[1.01E0,1E0,1.1208921E-1,1.19E2,6.5E1,6E0,1E0,1E0,1E0,2E0,7E0,2.01E2,1.7E1,8E0,4.19E2,3.23E2,2E0,1.0418431E-1,6.1E1,6.9E1,-4.953295E-2,5.5E1,-4.08553E-2,9E0,3.649E3,1.6777779E1,3.0445231E-2,6E0,1.04932465E-1,5E0,5.1062644E-2,1E0,1.1164092E-1,-3.4427755E-2,6.6620104E-2,-3.7839644E-2,2.08718E-2,9.69348E-2,5.037461E-2,-3.959278E-2,9.6993856E-2,-5.563259E-2,5.2301925E-2,1.3323604E-2,9.543273E-2,-3.848159E-2,-5.6708753E-2,9.533077E-2,-1.9119535E-2,-1.5700122E-2,-4.9640372E-2,7.106851E-2,3.4587947E-3],"split_indices":[10,0,0,1,0,2,9,7,16,3,2,3,2,1,21,1,13,0,1,1,0,3,0,2,1,21,21,2,0,2,0,20,0,0,0,0,0,0,0,0,0,0,0,0,0,0,0,0,0,0,0,0,0],"split_type":[0,0,0,0,0,0,0,0,0,0,0,0,0,0,0,0,0,0,0,0,0,0,0,0,0,0,0,0,0,0,0,0,0,0,0,0,0,0,0,0,0,0,0,0,0,0,0,0,0,0,0,0,0],"sum_hessian":[1.579892E3,1.2821356E3,2.9775638E2,1.3454918E2,1.1475864E3,2.3441193E1,1.11107994E2,1.1201337E3,2.7452826E1,9.829542E0,1.361165E1,9.517776E1,1.5930235E1,1.0445248E3,7.560885E1,1.1131257E1,1.6321568E1,4.2769713E0,5.552571E0,3.400561E0,1.021109E1,9.344598E1,1.7317837E0,6.7202687E0,9.209967E0,2.6113993E1,1.0184108E3,6.629343E1,9.315415E0,9.904359E0,1.2268982E0,9.174452E0,7.147116E0,1.096106E0,4.456465E0,1.4066972E0,1.9938638E0,8.3022095E1,1.0423879E1,1.4617732E0,5.2584953E0,7.998293E0,1.2116733E0,2.2027447E1,4.0865464E0,6.916347E2,3.2677612E2,5.1529055E0,6.1140526E1,6.2612553E0,3.6431038E0,6.4430857E0,2.7313657E0],"tree_param":{"num_deleted":"0","num_feature":"24","num_nodes":"53","size_leaf_vector":"1"}},{"base_weights":[1.0816589E-4,7.816302E-2,-6.0880728E-2,2.1416864E-1,-2.7998877E-1,2.6419863E-1,-4.7318158E-1,-5.3325164E-1,1.7456563E-1,1.5944076E-1,1.0186625E0,4.17161E-2,-4.9830684E-1,-4.135549E-1,-5.8909394E-2,-4.007293E-1,4.201411E-1,-3.9850894E-1,2.2232528E-1,-3.879509E-1,1.0978922E0,-5.752573E-1,-4.1276053E-1,3.6027983E-1,-4.6964917E-1,-5.0430614E-1,9.968921E-2,1.5098155E-1,9.4504505E-1,-4.9666014E-2,4.0626206E-2,2.8902182E-2,-3.2402273E-2,9.009941E-3,-5.110083E-2,1.1587743E-1,-3.5544626E-2,-5.992415E-2,-2.6742404E-2,7.9808615E-2,-4.8864044E-2,-4.2067863E-2,8.249408E-2,-5.3480715E-2,-2.2448236E-3,-5.689652E-2,2.0159448E-2,-2.0257026E-2,6.861799E-2,1.08809344E-1,-4.72399E-2],"categories":[],"categories_nodes":[],"categories_segments":[],"categories_sizes":[],"default_left":[0,0,0,0,0,0,0,0,0,0,0,0,0,0,0,0,0,0,0,0,0,0,0,0,0,0,0,0,0,0,0,0,0,0,0,0,0,0,0,0,0,0,0,0,0,0,0,0,0,0,0],"id":19,"left_children":[1,3,-1,5,7,9,11,13,15,17,19,-1,21,23,-1,25,27,29,31,33,35,37,39,41,43,45,-1,47,49,-1,-1,-1,-1,-1,-1,-1,-1,-1,-1,-1,-1,-1,-1,-1,-1,-1,-1,-1,-1,-1,-1],"loss_changes":[7.590691E1,6.901517E1,0E0,3.542651E1,4.499603E1,7.551868E1,1.7739763E0,1.432312E0,1.9991913E1,2.9631033E1,1.341613E1,0E0,2.1376228E-1,3.7771835E0,0E0,6.6535416E0,1.381978E1,6.9667025E0,2.7691025E1,4.5514584E-1,1.0198624E1,8.740997E-2,3.6974974E0,2.5910182E0,2.2589092E0,1.9505358E0,0E0,1.2725519E1,7.26775E0,0E0,0E0,0E0,0E0,0E0,0E0,0E0,0E0,0E0,0E0,0E0,0E0,0E0,0E0,0E0,0E0,0E0,0E0,0E0,0E0,0E0,0E0],"parents":[2147483647,0,0,1,1,3,3,4,4,5,5,6,6,7,7,8,8,9,9,10,10,12,12,13,13,15,15,16,16,17,17,18,18,19,19,20,20,21,21,22,22,23,23,24,24,25,25,27,27,28,28],"right_children":[2,4,-1,6,8,10,12,14,16,18,20,-1,22,24,-1,26,28,30,32,34,36,38,40,42,44,46,-1,48,50,-1,-1,-1,-1,-1,-1,-1,-1,-1,-1,-1,-1,-1,-1,-1,-1,-1,-1,-1,-1,-1,-1],"split_conditions":[1.01E0,3.0445231E-2,-6.0880728E-2,1E0,1E0,1E0,7.7E1,1.3125388E1,2E0,4.1E1,1E0,4.17161E-2,2.6E1,1E1,-5.8909394E-2,8E0,1E0,5.2E1,4.1E1,3.4E2,3E1,1E0,2.7E1,1.88E2,9E0,1.3E1,9.968921E-2,2.9E1,1E0,-4.9666014E-2,4.0626206E-2,2.8902182E-2,-3.2402273E-2,9.009941E-3,-5.110083E-2,1.1587743E-1,-3.5544626E-2,-5.992415E-2,-2.6742404E-2,7.9808615E-2,-4.8864044E-2,-4.2067863E-2,8.249408E-2,-5.3480715E-2,-2.2448236E-3,-5.689652E-2,2.0159448E-2,-2.0257026E-2,6.861799E-2,1.08809344E-1,-4.72399E-2],"split_indices":[10,21,0,6,9,5,1,21,3,1,0,0,0,0,0,15,8,0,0,1,0,8,0,1,21,2,0,0,17,0,0,0,0,0,0,0,0,0,0,0,0,0,0,0,0,0,0,0,0,0,0],"split_type":[0,0,0,0,0,0,0,0,0,0,0,0,0,0,0,0,0,0,0,0,0,0,0,0,0,0,0,0,0,0,0,0,0,0,0,0,0,0,0,0,0,0,0,0,0,0,0,0,0,0,0],"sum_hessian":[1.5950706E3,1.4146083E3,1.8046233E2,1.0255608E3,3.8904745E2,9.5655206E2,6.900868E1,2.4973187E2,1.3931558E2,8.4099115E2,1.1556092E2,1.4657273E0,6.754295E1,8.211845E1,1.6761342E2,4.1489296E1,9.782628E1,8.464369E1,7.563475E2,5.954289E0,1.0960663E2,3.2544273E1,3.4998684E1,5.183801E0,7.693465E1,3.9221764E1,2.267532E0,6.551779E1,3.230849E1,7.578383E1,8.859863E0,6.7448E2,8.18675E1,1.2737775E0,4.6805115E0,1.0539422E2,4.212413E0,2.9313713E1,3.2305582E0,1.5026429E0,3.349604E1,1.9690543E0,3.2147467E0,6.697969E1,9.954957E0,3.6108307E1,3.1134593E0,3.9828564E1,2.5689228E1,2.9557867E1,2.750624E0],"tree_param":{"num_deleted":"0","num_feature":"24","num_nodes":"51","size_leaf_vector":"1"}},{"base_weights":[8.810013E-4,-2.61208E-1,5.537835E-1,-4.3932912E-1,-3.4096137E-2,9.9695325E-2,7.369335E-1,-4.7316322E-1,7.3120755E-1,-4.0051916E-1,1.4977492E-1,6.022627E-1,-1.5683609E-1,8.3429074E-1,-2.6163805E-1,-4.847155E-1,8.905716E-2,9.000892E-1,-4.0701494E-2,-4.8623875E-1,5.6047093E-2,3.4426785E-1,-5.948487E-2,8.6185575E-1,-5.553897E-2,-5.506634E-1,3.580524E-1,-2.7618822E-1,8.744376E-1,2.7112958E-1,-5.7792403E-2,-5.434621E-1,-1.847448E-1,1.0000569E0,-3.1847702E-4,-5.878848E-1,-3.1916478E-1,7.0782757E-1,-4.4650576E-1,5.1016426E-1,3.5135444E-2,9.8323816E-1,-4.667319E-2,4.5902077E-2,-5.8321673E-2,5.570339E-1,-5.5465996E-2,8.035557E-2,-4.887004E-1,9.6634895E-1,5.366563E-1,-1.737198E-1,7.459395E-1,-4.8832085E-2,-6.0433056E-2,1.9335434E-2,-4.598173E-2,6.892846E-2,1.200724E-1,-5.9925087E-2,2.5122038E-3,1.490583E-2,-5.06848E-2,8.5828595E-2,-3.5596814E-2,-1.9022522E-2,-5.4469567E-2,2.3467278E-3,6.1301727E-2,-6.0760327E-2,6.959547E-2,1.01578705E-1,2.9296156E-3,7.717615E-2,-9.286234E-3,1.26540335E-2,-5.7199825E-2,9.812704E-2,-2.253349E-2,1.4677211E-2,9.2183486E-2,-5.248764E-2,6.265069E-2,9.083978E-2,4.0558656E-3],"categories":[],"categories_nodes":[],"categories_segments":[],"categories_sizes":[],"default_left":[0,0,0,0,0,0,0,0,0,0,0,0,0,0,0,0,0,0,0,0,0,0,0,0,0,0,0,0,0,0,0,0,0,0,0,0,0,0,0,0,0,0,0,0,0,0,0,0,0,0,0,0,0,0,0,0,0,0,0,0,0,0,0,0,0,0,0,0,0,0,0,0,0,0,0,0,0,0,0,0,0,0,0,0,0],"id":20,"left_children":[1,3,5,7,9,11,13,15,17,19,21,23,25,27,29,31,-1,33,-1,35,37,39,-1,41,-1,43,45,47,49,51,-1,53,55,57,-1,59,61,63,65,67,69,71,-1,-1,-1,73,-1,-1,75,77,79,81,83,-1,-1,-1,-1,-1,-1,-1,-1,-1,-1,-1,-1,-1,-1,-1,-1,-1,-1,-1,-1,-1,-1,-1,-1,-1,-1,-1,-1,-1,-1,-1,-1],"loss_changes":[2.2611748E2,4.280915E1,4.1659515E1,2.3839386E1,3.1483208E1,1.8837526E1,3.4966095E1,9.524231E0,3.6452627E0,6.136881E0,4.528643E1,1.5305271E1,1.9875397E1,1.47712555E1,5.635341E0,9.996277E0,0E0,1.3725748E0,0E0,2.0461826E0,8.692625E0,1.2672354E1,0E0,7.0211525E0,0E0,2.0879707E0,8.057223E0,3.1763403E0,9.253937E0,2.8315477E0,0E0,1.3112488E0,1.0005346E1,2.4047852E-2,0E0,5.765915E-1,4.6401663E0,2.1494365E0,2.7517462E-1,8.042923E0,3.7583885E1,1.1379356E0,0E0,0E0,0E0,5.029375E0,0E0,0E0,6.2371755E-1,4.598892E0,1.0313852E1,2.4126577E0,6.938884E-1,0E0,0E0,0E0,0E0,0E0,0E0,0E0,0E0,0E0,0E0,0E0,0E0,0E0,0E0,0E0,0E0,0E0,0E0,0E0,0E0,0E0,0E0,0E0,0E0,0E0,0E0,0E0,0E0,0E0,0E0,0E0,0E0],"parents":[2147483647,0,0,1,1,2,2,3,3,4,4,5,5,6,6,7,7,8,8,9,9,10,10,11,11,12,12,13,13,14,14,15,15,17,17,19,19,20,20,21,21,23,23,25,25,26,26,27,27,28,28,29,29,31,31,32,32,33,33,35,35,36,36,37,37,38,38,39,39,40,40,41,41,45,45,48,48,49,49,50,50,51,51,52,52],"right_children":[2,4,6,8,10,12,14,16,18,20,22,24,26,28,30,32,-1,34,-1,36,38,40,-1,42,-1,44,46,48,50,52,-1,54,56,58,-1,60,62,64,66,68,70,72,-1,-1,-1,74,-1,-1,76,78,80,82,84,-1,-1,-1,-1,-1,-1,-1,-1,-1,-1,-1,-1,-1,-1,-1,-1,-1,-1,-1,-1,-1,-1,-1,-1,-1,-1,-1,-1,-1,-1,-1,-1],"split_conditions":[3.0445231E-2,2.9E1,2E0,1E0,1.19E2,2.4E1,1E0,1E0,4.65E2,5.5E1,1.01E0,1E0,2.7E1,9E0,4E0,1E0,8.905716E-2,1E0,-4.0701494E-2,9.2E1,6.6E1,1E0,-5.948487E-2,6E0,-5.553897E-2,1.9E0,8E0,9.8E1,1E0,2.7227962E1,-5.7792403E-2,1E0,1.3E1,2.28E2,-3.1847702E-4,7E0,5E0,1E0,1.01E0,3.1E1,1E0,2.99E2,-4.667319E-2,4.5902077E-2,-5.8321673E-2,1E0,-5.5465996E-2,8.035557E-2,2.8041801E0,6.2E1,2.82E2,2.4E1,4.8E1,-4.8832085E-2,-6.0433056E-2,1.9335434E-2,-4.598173E-2,6.892846E-2,1.200724E-1,-5.9925087E-2,2.5122038E-3,1.490583E-2,-5.06848E-2,8.5828595E-2,-3.5596814E-2,-1.9022522E-2,-5.4469567E-2,2.3467278E-3,6.1301727E-2,-6.0760327E-2,6.959547E-2,1.01578705E-1,2.9296156E-3,7.717615E-2,-9.286234E-3,1.26540335E-2,-5.7199825E-2,9.812704E-2,-2.253349E-2,1.4677211E-2,9.2183486E-2,-5.248764E-2,6.265069E-2,9.083978E-2,4.0558656E-3],"split_indices":[21,0,3,17,1,0,8,19,1,0,10,8,0,0,14,8,0,9,0,1,0,5,0,20,0,21,12,1,9,21,0,4,2,1,0,2,2,5,10,0,6,1,0,0,0,15,0,0,21,0,1,0,2,0,0,0,0,0,0,0,0,0,0,0,0,0,0,0,0,0,0,0,0,0,0,0,0,0,0,0,0,0,0,0,0],"split_type":[0,0,0,0,0,0,0,0,0,0,0,0,0,0,0,0,0,0,0,0,0,0,0,0,0,0,0,0,0,0,0,0,0,0,0,0,0,0,0,0,0,0,0,0,0,0,0,0,0,0,0,0,0,0,0,0,0,0,0,0,0,0,0,0,0,0,0,0,0,0,0,0,0,0,0,0,0,0,0,0,0,0,0,0,0],"sum_hessian":[1.5584049E3,1.0576033E3,5.008017E2,5.922075E2,4.6539572E2,1.4438039E2,3.564213E2,5.7614984E2,1.6057697E1,1.5511008E2,3.1028564E2,4.8336758E1,9.604363E1,3.249084E2,3.1512903E1,5.719494E2,4.200456E0,1.416518E1,1.8925169E0,1.3053697E2,2.4573103E1,2.4645117E2,6.383447E1,3.9691757E1,8.645001E0,5.4380024E1,4.166361E1,1.1131343E1,3.1377704E2,1.1792243E1,1.9720661E1,4.776033E2,9.434608E1,1.2657225E1,1.5079553E0,7.959408E1,5.094289E1,1.0520365E1,1.4052737E1,1.5995872E2,8.649244E1,3.660719E1,3.0845678E0,1.2893258E0,5.30907E1,3.4526207E1,7.1374044E0,1.3731816E0,9.758162E0,2.4519722E2,6.8579834E1,6.415598E0,5.376645E0,2.5532492E2,2.2227838E2,3.985741E1,5.448867E1,6.706248E0,5.9509773E0,7.8167175E1,1.4269016E0,1.4635856E1,3.6307037E1,9.386033E0,1.1343318E0,4.706323E0,9.346415E0,2.8120684E1,1.3183804E2,4.3886875E1,4.2605564E1,3.533666E1,1.2705312E0,2.5810743E1,8.715462E0,1.1017165E0,8.6564455E0,2.4233939E2,2.8578327E0,3.4768066E1,3.3811768E1,4.698073E0,1.7175248E0,4.1362104E0,1.2404346E0],"tree_param":{"num_deleted":"0","num_feature":"24","num_nodes":"85","size_leaf_vector":"1"}},{"base_weights":[1.0449981E-3,4.9640062E-1,-2.063301E-1,6.592711E-1,6.5936506E-2,-1.4188917E-1,-5.979194E-2,7.7104264E-1,4.4958144E-3,-3.59082E-1,3.334618E-1,-4.939985E-3,-3.6109054E-1,2.4494678E-1,8.539775E-1,-4.7424495E-1,7.1044755E-1,-4.551434E-1,8.841339E-2,9.5154107E-1,-3.9379528E-1,-3.509073E-1,1.8080461E-1,-4.192425E-1,5.235226E-1,-1.6680603E-1,8.4192914E-1,8.8491374E-1,-2.1090898E-1,-5.5902517E-1,1.993329E-1,2.9445773E-1,1.0220138E-1,3.8550955E-1,-5.2667916E-1,9.807321E-1,9.46358E-4,-2.9700398E-1,-5.5840302E-2,-4.1437796E-1,3.5467824E-1,3.9235067E-1,-3.7617922E-1,-5.591617E-1,-1.2546374E-1,6.8822896E-1,-4.534247E-2,3.088241E-3,-5.830842E-2,-3.8778093E-2,9.637109E-2,5.057931E-2,9.345838E-2,-5.3074267E-2,4.4640258E-2,-5.9275337E-2,1.2039411E-2,9.0230174E-2,-4.3110903E-2,-4.792593E-2,6.150338E-2,-3.897215E-2,9.221386E-2,-5.4414965E-2,-3.9364356E-3,1.0166025E-1,1.8341372E-2,-4.518566E-2,2.946888E-2,-2.4344618E-2,-5.772654E-2,8.625803E-3,8.8650316E-2,5.4809064E-2,-5.5687822E-2,-4.8387516E-2,7.679994E-2,-5.7252087E-2,-4.1748267E-2,7.88877E-2,-3.180807E-2,7.614061E-2,-3.293071E-2],"categories":[],"categories_nodes":[],"categories_segments":[],"categories_sizes":[],"default_left":[0,0,0,0,0,0,0,0,0,0,0,0,0,0,0,0,0,0,0,0,0,0,0,0,0,0,0,0,0,0,0,0,0,0,0,0,0,0,0,0,0,0,0,0,0,0,0,0,0,0,0,0,0,0,0,0,0,0,0,0,0,0,0,0,0,0,0,0,0,0,0,0,0,0,0,0,0,0,0,0,0,0,0],"id":21,"left_children":[1,3,5,7,9,11,-1,13,15,17,19,21,23,25,27,29,31,33,-1,35,37,39,41,43,45,47,49,51,53,55,57,59,-1,61,63,65,-1,67,-1,69,71,73,75,77,79,81,-1,-1,-1,-1,-1,-1,-1,-1,-1,-1,-1,-1,-1,-1,-1,-1,-1,-1,-1,-1,-1,-1,-1,-1,-1,-1,-1,-1,-1,-1,-1,-1,-1,-1,-1,-1,-1],"loss_changes":[1.6103291E2,3.238955E1,2.7799686E1,2.455069E1,1.4684622E1,2.8522194E1,0E0,1.22948E1,1.7210554E1,6.369365E0,3.594457E1,3.7709587E1,1.9014133E1,1.0077841E1,8.328751E0,1.8446441E0,2.365878E0,3.0319004E0,0E0,1.1751366E0,4.2464924E-1,9.32719E0,4.5138706E1,1.4044403E1,4.009875E0,2.055594E0,2.8697376E0,4.0536346E0,1.873552E0,6.95138E-1,2.219416E0,2.8287148E0,0E0,2.1342454E0,3.5125542E-1,1.0080299E0,0E0,2.4673045E0,0E0,5.108696E0,2.415515E0,4.128783E1,1.3385921E1,2.0067596E-1,1.9988209E1,1.7445965E0,0E0,0E0,0E0,0E0,0E0,0E0,0E0,0E0,0E0,0E0,0E0,0E0,0E0,0E0,0E0,0E0,0E0,0E0,0E0,0E0,0E0,0E0,0E0,0E0,0E0,0E0,0E0,0E0,0E0,0E0,0E0,0E0,0E0,0E0,0E0,0E0,0E0],"parents":[2147483647,0,0,1,1,2,2,3,3,4,4,5,5,7,7,8,8,9,9,10,10,11,11,12,12,13,13,14,14,15,15,16,16,17,17,19,19,20,20,21,21,22,22,23,23,24,24,25,25,26,26,27,27,28,28,29,29,30,30,31,31,33,33,34,34,35,35,37,37,39,39,40,40,41,41,42,42,43,43,44,44,45,45],"right_children":[2,4,6,8,10,12,-1,14,16,18,20,22,24,26,28,30,32,34,-1,36,38,40,42,44,46,48,50,52,54,56,58,60,-1,62,64,66,-1,68,-1,70,72,74,76,78,80,82,-1,-1,-1,-1,-1,-1,-1,-1,-1,-1,-1,-1,-1,-1,-1,-1,-1,-1,-1,-1,-1,-1,-1,-1,-1,-1,-1,-1,-1,-1,-1,-1,-1,-1,-1,-1,-1],"split_conditions":[8.9E1,2.7E1,1.01E0,1E0,4.1E1,2.7E1,-5.979194E-2,1.2E1,8.55E0,3E0,5.2E1,1.2E1,1E0,6E0,1.10171425E2,2.1E1,2E0,3.8E1,8.841339E-2,7.376365E1,1.01E0,5.5E1,1E0,4.1E1,3.0445231E-2,6.9E1,2E0,1.8E1,2.4E1,3E0,5.2E1,2E1,1.0220138E-1,3.4E1,1E0,7.9E1,9.46358E-4,6.6E1,-5.5840302E-2,4E0,5.85E2,1E0,2.3E1,1E0,4.2E1,1E0,-4.534247E-2,3.088241E-3,-5.830842E-2,-3.8778093E-2,9.637109E-2,5.057931E-2,9.345838E-2,-5.3074267E-2,4.4640258E-2,-5.9275337E-2,1.2039411E-2,9.0230174E-2,-4.3110903E-2,-4.792593E-2,6.150338E-2,-3.897215E-2,9.221386E-2,-5.4414965E-2,-3.9364356E-3,1.0166025E-1,1.8341372E-2,-4.518566E-2,2.946888E-2,-2.4344618E-2,-5.772654E-2,8.625803E-3,8.8650316E-2,5.4809064E-2,-5.5687822E-2,-4.8387516E-2,7.679994E-2,-5.7252087E-2,-4.1748267E-2,7.88877E-2,-3.180807E-2,7.614061E-2,-3.293071E-2],"split_indices":[1,0,10,17,0,0,0,0,21,13,0,0,4,2,21,0,20,1,0,21,10,3,19,0,21,1,3,1,0,17,1,0,0,0,6,1,0,0,0,0,2,9,12,6,0,9,0,0,0,0,0,0,0,0,0,0,0,0,0,0,0,0,0,0,0,0,0,0,0,0,0,0,0,0,0,0,0,0,0,0,0,0,0],"split_type":[0,0,0,0,0,0,0,0,0,0,0,0,0,0,0,0,0,0,0,0,0,0,0,0,0,0,0,0,0,0,0,0,0,0,0,0,0,0,0,0,0,0,0,0,0,0,0,0,0,0,0,0,0,0,0,0,0,0,0,0,0,0,0,0,0,0,0,0,0,0,0,0,0,0,0,0,0,0,0,0,0,0,0],"sum_hessian":[1.5656234E3,4.6160254E2,1.1040209E3,3.3450693E2,1.2709563E2,9.4918317E2,1.5483769E2,2.855802E2,4.892672E1,4.896403E1,7.81316E1,5.8482684E2,3.6435635E2,3.9427307E1,2.461529E2,2.9350746E1,1.9575972E1,4.6040455E1,2.9235778E0,4.2069386E1,3.6062214E1,2.0398878E2,3.8083807E2,3.423756E2,2.1980724E1,2.3760036E1,1.5667273E1,2.3936797E2,6.7849226E0,2.6220549E1,3.130198E0,9.216108E0,1.0359864E1,3.2663922E0,4.2774063E1,4.076521E1,1.3041738E0,2.447496E1,1.1587254E1,1.8753212E2,1.645666E1,2.7622253E2,1.0461553E2,2.3130682E2,1.11068794E2,1.906246E1,2.918264E0,1.673736E1,7.022676E0,1.2149454E0,1.4452327E1,2.9023205E1,2.1034477E2,4.6936493E0,2.0912733E0,2.510198E1,1.1185689E0,1.2760872E0,1.854111E0,2.5548735E0,6.661235E0,1.4481335E0,1.8182588E0,4.1181072E1,1.5929892E0,3.8747E1,2.01821E0,1.9585539E1,4.8894215E0,9.272371E1,9.480841E1,1.1709093E1,4.747567E0,2.3765335E2,3.8569183E1,9.614314E1,8.472387E0,2.0859691E2,2.2709911E1,1.8787956E1,9.228084E1,1.8018366E1,1.0440937E0],"tree_param":{"num_deleted":"0","num_feature":"24","num_nodes":"83","size_leaf_vector":"1"}},{"base_weights":[-2.291027E-3,-2.5110275E-1,1.0233922E-1,6.171741E-1,-3.5801297E-1,1.0823244E-1,7.1983373E-1,-3.778973E-1,4.0751925E-1,7.405163E-1,-3.8671955E-1,8.2424486E-1,6.968975E-2,-4.1052824E-1,5.9485227E-2,-1.7758986E-1,7.788332E-1,9.893641E-2,4.2634067E-1,-5.454779E-2,-4.8405148E-2,8.4988046E-1,-4.0060516E-2,6.18556E-1,-3.6856276E-1,2.3530063E-1,-4.3059462E-1,3.6348996E-1,-3.978684E-1,-3.028059E-1,4.959961E-2,4.971512E-1,1.0361391E-1,-3.347259E-2,6.3301094E-2,-3.67609E-2,2.106156E-2,8.851061E-2,4.1491367E-2,8.276678E-2,9.672938E-3,-5.4938402E-2,5.034659E-2,-4.9302842E-2,3.470918E-2,-3.727207E-2,-5.5467684E-2,-2.7257359E-2,8.2110375E-2,-7.981484E-3,-5.2256744E-2,-1.451006E-2,-4.859691E-2,6.680626E-2,2.1115968E-3],"categories":[],"categories_nodes":[],"categories_segments":[],"categories_sizes":[],"default_left":[0,0,0,0,0,0,0,0,0,0,0,0,0,0,0,0,0,0,0,0,0,0,0,0,0,0,0,0,0,0,0,0,0,0,0,0,0,0,0,0,0,0,0,0,0,0,0,0,0,0,0,0,0,0,0],"id":22,"left_children":[1,3,-1,5,7,9,11,13,15,17,19,21,23,25,27,29,31,-1,33,35,-1,37,-1,39,41,43,45,47,49,51,-1,53,-1,-1,-1,-1,-1,-1,-1,-1,-1,-1,-1,-1,-1,-1,-1,-1,-1,-1,-1,-1,-1,-1,-1],"loss_changes":[3.9507346E2,1.1587048E2,0E0,7.07745E0,1.704898E1,7.8486967E0,7.6665955E0,1.5471542E1,6.347664E0,4.345503E-1,4.330585E-1,3.4160156E0,4.27808E0,1.3155472E1,1.0713454E1,1.1547362E0,7.6559544E-1,0E0,1.2497565E0,4.3831873E-1,0E0,1.1076584E0,0E0,7.7639055E-1,1.8516281E0,2.6952739E0,6.8114014E0,1.3666906E1,1.1810117E0,2.3752636E-1,0E0,8.2861257E-1,0E0,0E0,0E0,0E0,0E0,0E0,0E0,0E0,0E0,0E0,0E0,0E0,0E0,0E0,0E0,0E0,0E0,0E0,0E0,0E0,0E0,0E0,0E0],"parents":[2147483647,0,0,1,1,3,3,4,4,5,5,6,6,7,7,8,8,9,9,10,10,11,11,12,12,13,13,14,14,15,15,16,16,18,18,19,19,21,21,23,23,24,24,25,25,26,26,27,27,28,28,29,29,31,31],"right_children":[2,4,-1,6,8,10,12,14,16,18,20,22,24,26,28,30,32,-1,34,36,-1,38,-1,40,42,44,46,48,50,52,-1,54,-1,-1,-1,-1,-1,-1,-1,-1,-1,-1,-1,-1,-1,-1,-1,-1,-1,-1,-1,-1,-1,-1,-1],"split_conditions":[1.01E0,1E0,1.0233922E-1,1.19E2,6.5E1,6E0,1E0,1E0,1E0,2E0,7E0,2.01E2,5E0,1.8E1,7E0,3.23E2,2E0,9.893641E-2,6.1E1,6.9E1,-4.8405148E-2,1E0,-4.0060516E-2,1E0,3.649E3,2.3E1,3.0445231E-2,2E0,1E0,5E0,4.959961E-2,4.2E1,1.0361391E-1,-3.347259E-2,6.3301094E-2,-3.67609E-2,2.106156E-2,8.851061E-2,4.1491367E-2,8.276678E-2,9.672938E-3,-5.4938402E-2,5.034659E-2,-4.9302842E-2,3.470918E-2,-3.727207E-2,-5.5467684E-2,-2.7257359E-2,8.2110375E-2,-7.981484E-3,-5.2256744E-2,-1.451006E-2,-4.859691E-2,6.680626E-2,2.1115968E-3],"split_indices":[10,0,0,1,0,2,9,7,16,3,2,3,3,1,3,1,13,0,1,1,0,7,0,8,1,0,21,3,4,2,0,21,0,0,0,0,0,0,0,0,0,0,0,0,0,0,0,0,0,0,0,0,0,0,0],"split_type":[0,0,0,0,0,0,0,0,0,0,0,0,0,0,0,0,0,0,0,0,0,0,0,0,0,0,0,0,0,0,0,0,0,0,0,0,0,0,0,0,0,0,0,0,0,0,0,0,0,0,0,0,0,0,0],"sum_hessian":[1.5460743E3,1.2448516E3,3.0122272E2,1.3595045E2,1.1089011E3,2.3164627E1,1.1278582E2,1.0813208E3,2.7580387E1,9.953386E0,1.3211241E1,9.694842E1,1.5837406E1,1.0063066E3,7.5014175E1,1.0910137E1,1.667025E1,4.354922E0,5.598465E0,3.3474793E0,9.863761E0,9.526079E1,1.6876303E0,6.848699E0,8.988707E0,3.0001276E1,9.763053E2,4.518486E1,2.9829319E1,9.664091E0,1.2460461E0,9.357929E0,7.3123207E0,1.0632856E0,4.5351796E0,1.357921E0,1.9895583E0,8.716674E1,8.094047E0,4.470955E0,2.3777447E0,7.7513943E0,1.2373124E0,3.5383523E0,2.6462923E1,6.685067E2,3.0779858E2,1.9075329E1,2.610953E1,8.863192E0,2.0966127E1,6.155951E0,3.5081403E0,6.588916E0,2.7690134E0],"tree_param":{"num_deleted":"0","num_feature":"24","num_nodes":"55","size_leaf_vector":"1"}},{"base_weights":[3.3873555E-4,7.280032E-2,-5.9804708E-2,1.9708101E-1,-2.6779765E-1,4.3333683E-2,4.0784767E-1,-5.198866E-1,1.6291505E-1,3.453391E-1,-1.8040825E-1,6.231581E-1,-2.8066397E-1,-3.9651558E-1,-5.779255E-2,3.3904338E-1,-5.629864E-1,-2.7122802E-1,7.1425116E-1,-2.964805E-1,3.9989406E-1,8.844571E-1,1.5655206E-1,-3.7667418E-1,3.8646796E-1,3.4344912E-1,-4.5295936E-1,1.5240195E-1,8.0586183E-1,-5.9519965E-2,1.2292665E-3,-5.1270664E-2,7.991478E-2,8.1338674E-2,-3.123925E-2,-4.709028E-2,1.7866325E-2,5.4185104E-2,-2.6102806E-2,6.87119E-2,1.1057389E-1,5.313797E-2,-2.8837074E-2,-1.5660329E-2,-5.4237813E-2,1.2565081E-2,1.0419816E-1,-4.1005213E-2,7.704928E-2,-5.718878E-2,-1.8257095E-2,-1.0511718E-2,5.767989E-2,9.602438E-2,-1.7170412E-2],"categories":[],"categories_nodes":[],"categories_segments":[],"categories_sizes":[],"default_left":[0,0,0,0,0,0,0,0,0,0,0,0,0,0,0,0,0,0,0,0,0,0,0,0,0,0,0,0,0,0,0,0,0,0,0,0,0,0,0,0,0,0,0,0,0,0,0,0,0,0,0,0,0,0,0],"id":23,"left_children":[1,3,-1,5,7,9,11,13,15,17,19,21,23,25,-1,27,29,31,33,35,37,39,41,43,45,47,49,51,53,-1,-1,-1,-1,-1,-1,-1,-1,-1,-1,-1,-1,-1,-1,-1,-1,-1,-1,-1,-1,-1,-1,-1,-1,-1,-1],"loss_changes":[6.832688E1,5.9551056E1,0E0,3.33721E1,4.0931107E1,4.0396053E1,6.458515E1,1.4717255E0,1.8045591E1,5.8052116E1,2.3258276E1,4.025418E1,6.819373E0,